const int N = 100, N0 = 784, N1 = 50, N2 = 100, N3 = 10;
const float W1[N0][N1] = { { -0.007412489, -0.007904391, -0.013074991, 0.018525729, -0.0015346118, -0.008764852, -0.029294612, -0.021018585, -0.014904079, -0.0056321486, -0.006693859, -0.095320195, 0.02302948, 0.0011691557, 0.04227314, 0.008766462, 0.02783365, -0.03575159, 0.014931046, -0.0044468082, -0.019835344, -0.0065456815, 0.055309188, 0.0602967, 0.04177547, -0.014974983, -0.012856779, 0.016845137, -0.016413527, 0.033497706, 0.015232171, 0.030685173, -0.019785004, 0.014704135, -0.02748215, 0.010335697, 0.0032417716, 0.013691659, 0.047393464, -0.0077669853, 0.010091758, -0.03811338, -0.030227926, -0.005547728, 0.06369497, 0.031571597, 0.06316955, 0.019787211, -0.04331266, -0.013501037, },
{ -0.01029745, -0.016166529, -0.012283756, -0.017926348, 0.003398778, -0.07070778, -0.0010959205, 0.045661036, 0.043648858, -0.017969683, -0.029922262, -0.004063399, 0.009378557, -0.013688837, 0.035508174, 0.02338022, -0.012985392, 0.011483039, -0.0089379605, -0.006629108, 0.020070808, -0.07652189, 0.039779253, -0.031072777, 0.014057782, -0.031130243, 0.022704275, -0.021125989, 0.014125943, 0.055243555, -0.02936034, 0.015003763, -0.071209505, -0.00053635455, 0.05228914, -0.041315187, -0.033144787, -0.00074251246, -0.042783096, 0.00263623, -0.0030901257, -0.007489563, -0.02195256, 0.016241208, 0.0045059784, 0.078644365, 0.038049426, 0.019202275, 0.028098108, 0.014509075, },
{ -0.01309184, -0.0024474715, -0.0177224, -0.02424026, -0.022040805, -0.0050148587, -0.0026498297, -0.004617295, 0.011969556, 0.032013018, 0.070272736, 0.042278603, -0.036867272, -0.06660696, -0.068562105, -0.030534092, 0.019035883, -0.07372849, -0.0006703325, -0.0051977606, -0.018150005, -0.028177427, -0.022128655, 0.002060699, 0.0008602325, 0.0687683, 0.031256326, 0.042475175, 0.02190648, 0.022518931, -0.033813443, 0.0111704795, 0.0031871195, -0.038337223, -0.028447079, -0.013051724, 0.026958866, 0.058650617, 0.0017840147, 0.014199611, 0.034854762, -0.0051183747, 0.07028148, -0.065093555, 0.018565573, -0.045271892, 0.006547023, 0.009447781, 0.013873012, 0.03393568, },
{ -0.010008393, 0.01958614, -0.0056169787, 0.038307365, -0.052506708, -0.023568299, 0.010110263, 0.07337855, 0.031942617, 0.008842335, -0.010678021, 0.051726263, -0.021727845, 0.050404735, 0.016137239, 0.045326654, -0.0066495636, 0.05754297, 0.055022184, -0.004671803, 0.027781807, -0.020599077, 0.019853354, 0.038398355, -0.008073039, -0.02871146, 0.009391957, -0.068639755, 0.04647783, 0.057100892, 0.0011856413, 0.051820654, 0.041878313, 0.045984976, -0.021406414, -0.0019371461, 0.010245397, -0.016701158, 0.027064513, -0.01984107, -0.025260856, -0.052382853, 0.002713906, -0.00817533, -0.041633323, -0.021758517, 0.019186899, 0.0007477148, 0.02126028, -0.048271738, },
{ 0.02207348, 0.0064083682, -0.028375767, -0.020699522, -0.027180187, 0.0056203892, 0.021845117, 0.010293024, -0.02663125, 0.017836431, -0.053971518, -0.017767763, -0.055247124, -0.061828088, 0.022685558, 0.014032509, -0.044203047, 0.021850761, 0.0031561058, 0.044077907, 0.02843539, -0.0361463, 0.0049107377, -0.026819158, -0.013603102, -0.020907665, -0.01166306, 0.062541164, -0.0037207536, -0.06926221, -0.0026406117, -0.040417954, -0.0062131486, 0.03222895, -0.0006392464, -0.0054039895, 0.0013976111, -0.0034246526, 0.037963126, -0.0042596594, -0.056124453, 0.038266696, -0.012531911, 0.07038171, 0.024008865, 0.01479319, -0.023114063, -0.012089953, -0.009649828, 0.031039122, },
{ 0.034282602, 0.03560783, 0.020079266, 0.018984018, 0.021060657, -0.025828503, -0.02569433, -0.008743909, 0.029892024, -0.0049948273, 0.0010432266, 0.04177301, -0.038050987, 0.05970016, -0.0075560156, 0.036911238, 0.013935453, 0.035102908, 0.0665946, 0.028579462, -0.02995976, 0.017277595, -0.07161817, 0.03575519, 0.008438761, 0.0031971282, -0.03348662, -0.01788232, 0.037854083, -0.054118164, 0.08921303, -0.012265537, 0.03070612, -0.046136696, -0.021277763, 0.0847321, -0.06726901, -0.021598684, 0.04782708, -0.0144388825, 0.01265256, 0.060783837, -0.02613116, -0.008061705, 0.05501796, -0.053877678, -0.005057611, -0.011293017, 0.1231001, 0.008701235, },
{ 0.018167838, 0.07595445, 0.080372535, 0.012627063, 0.030847775, 0.018222261, -0.04930237, 0.07959721, -0.048398666, 0.012777808, 0.02703162, -0.0121858325, -0.07602205, -0.017560657, 0.01678729, 0.002962554, -0.01638776, 0.015064519, 0.08877343, 0.015549324, 0.059736636, 0.048310388, 0.007335744, 0.03811148, -0.024767091, -0.006177043, 0.010149193, -0.0070386413, -0.04232794, 0.03333965, -0.012559217, 0.00041154333, 0.02873026, -0.023426175, -0.016827703, -0.019829948, 0.024358038, -0.002413872, -0.01925872, -0.05698994, -0.01605907, 0.005639617, 0.047677685, -0.025641842, 0.054469984, 0.0108929705, 0.034893535, 0.011278396, -0.019677453, 0.069613166, },
{ -0.010159649, -0.012806113, 0.014886464, 0.014226209, -0.017327694, 0.008982627, -0.008095043, 0.025729045, 0.009080818, 0.01039639, -0.013073332, -0.04138208, 0.019895535, -0.049321998, 0.026808495, -0.024072122, 0.006295455, -0.016005253, -0.041512866, -0.06923928, 0.048782162, 0.042410586, -0.038596284, 0.042160776, -0.0022288805, 0.034715082, -0.0031076018, 0.004473319, 0.05979365, -0.03932673, -0.030078065, 0.036569245, -0.03865824, -0.045171596, -0.0022634743, -0.060117807, 0.04429032, -0.049337815, 0.051955, 0.028073385, -0.038001824, 0.044423174, -0.01640932, 0.03360478, -0.0025368573, -0.0017828781, -0.016192796, 0.019515334, 0.015087792, 0.03736939, },
{ -0.025638213, -0.03720869, -0.018889282, 0.014394491, -0.01776269, 0.0018066263, -0.0044089304, 0.006674031, 0.007760646, -0.02658448, 0.018249763, -0.041029856, 0.01875424, 0.03033548, -0.0462269, -0.061851222, 0.033294898, 0.005762744, -0.008215135, 0.015318074, -0.009626012, 0.055817455, -0.00069602963, -0.03811443, -0.013702608, -0.053043887, 0.037770536, -0.03355283, -0.035358455, 0.0839109, 0.0182518, -0.039106265, -0.020883955, -0.025846148, -0.017866204, 0.011713179, 0.039853256, -0.04406952, 0.08324379, -0.017887153, 0.025903106, -0.06675669, -0.06385308, 0.04992952, -0.031482358, 0.023248125, -0.058103148, 0.064300425, -0.06282291, -0.0036884504, },
{ 0.030650541, -0.03473211, -0.033483524, -0.02949247, 0.014720261, -0.0026543648, 0.040134333, -0.040004358, 0.009895656, -0.005941516, -0.05985254, -0.02494084, 0.04406154, -0.011064164, -0.011034659, -0.021500593, -0.04146635, -0.031056833, -0.0013852195, -0.01863124, -0.016596422, -0.018507257, 0.036520433, 0.010333229, 0.002049983, 0.018227922, -0.0099147875, -0.035272285, -0.045475114, -0.0066974205, -0.044372804, -0.00075540453, -0.017972616, 0.03583938, -0.002324051, 0.013201595, -0.00089902757, -0.048297275, -0.02092077, -0.042374805, 0.043868303, 0.0119254375, -0.07927584, 0.05669089, -0.0043886336, -0.07906769, 0.02814247, -0.029481828, 0.03234235, -0.035071127, },
{ -0.00014020845, -0.052682046, -0.08680467, 0.02104006, -0.033570472, 0.039881796, 0.04072123, 0.03588628, -0.032900784, 0.027112179, -0.047591217, 0.013805814, -0.05207038, -0.0019462723, 0.024121191, -0.041443825, -0.01947682, -0.041062765, 0.008368285, -0.022873957, -0.09283616, -0.02191574, -0.007874965, -0.0018954409, -0.050425764, 0.008844055, 0.04235569, 0.065344974, 0.0154486885, -0.020740528, 0.008261712, -0.06599547, -0.0061718794, -0.016866688, 0.032858923, -0.047052253, 0.01129837, -0.03528039, 0.0471598, -0.0012955263, 0.04976439, -0.004363063, -0.104689285, -0.05743089, -0.05925202, -0.06604056, -0.008605989, 0.044959094, -0.008962228, 0.025056794, },
{ 0.03786047, 0.008993522, -0.0673496, -0.021591727, 0.023171643, 0.03775831, 0.03949649, -0.024024045, -0.11286593, -0.042025395, 0.008673338, -0.028542614, 0.026837727, -0.021795949, 0.00434914, -0.051966783, 0.00044819227, 0.0056234533, 0.038319383, -0.013371547, -0.013621201, 0.017335068, 0.005574523, 0.009037806, -0.015175942, 0.018963564, 0.0017654683, -0.05015938, 0.0009957318, 0.04974954, 0.042139813, -0.02127467, -0.0062415237, -0.016096681, 0.013905911, -0.043270722, -0.072810546, 0.06649797, 0.024423502, 0.019053016, 0.027986223, 0.001517244, 0.06928128, 0.009405637, -0.08632494, -0.044750676, 0.031325225, 0.03415686, 0.034983583, 0.026825398, },
{ -0.009063206, 0.031010838, -0.013552231, 0.043605477, -0.048058014, 0.019406471, 0.0576005, 0.0034772132, 0.04630262, -0.00920001, -0.06720415, -0.03260455, 0.023281036, 0.0015995438, 0.01865048, 0.030790253, -0.06595832, -0.0013377236, -0.042809848, -0.025865676, -0.055345662, 0.03865714, -0.03034254, 0.0003799231, -0.016418718, 0.004131973, -0.003345054, -0.045179766, -0.012308984, 0.020119475, 0.047888614, 0.012123074, -0.019354403, 0.02176045, 0.04188839, -0.0072172694, -0.014172519, 0.0008632364, 0.013569494, 0.001004514, 0.034659356, 0.02677724, 0.10151356, -0.0469336, 0.01355397, 0.0049849343, 0.002796181, -0.04694513, 0.052274153, 0.033608235, },
{ -0.029139955, -0.033462536, 0.023765253, 0.020516876, -0.0013518339, -0.029954877, -0.018767014, 0.013858038, 0.010177601, 0.008634052, -0.05680485, -0.004616586, 0.005380054, -0.0558762, -0.008507675, -0.07520605, 0.06988381, -0.00036547764, -0.017376652, 0.042780295, -0.022016104, -0.016656123, -0.046779145, 0.054372247, 0.07287998, -0.021705749, 0.08964084, -0.019131122, 0.00757393, 0.060294565, -0.011129437, 0.026698498, 0.056499325, 0.011006807, 0.038796496, 0.0036709623, 0.001825608, 0.032923028, 0.012764142, -0.0064762007, 0.07287097, -0.015004477, -0.051674858, 0.023759475, -0.016430188, -0.057485417, 0.024097329, -0.009502172, -0.006519187, 3.192613e-05, },
{ -0.04947677, -0.012073533, -0.018521061, -0.007645668, -0.001432555, -0.009770708, -0.011525947, 0.037169237, 0.03507794, -0.0098390775, 0.024421392, 0.0069934065, -0.021931482, -0.06547605, 0.030808434, -0.021158844, -0.030729104, 0.025577331, -0.028550783, -0.013385467, 0.016572442, -0.012795244, 0.016761879, 0.02237626, -0.024102284, 0.07613758, 0.016762352, -0.04345991, 0.022035109, 0.031775024, 0.009118748, 0.034524083, -0.020046886, 0.041814536, 0.026836202, -0.0052417223, -0.04156811, 0.04566718, 0.038323704, 0.033758435, -0.0038782323, -0.023942417, 0.02430797, -0.02316528, 0.00013046451, -0.02980412, 0.017356388, -0.06015802, -0.025715435, -0.038104158, },
{ 0.023097532, -0.05242163, -0.0278221, 0.038923558, 0.008041251, -0.012178204, -0.04372464, -0.045926865, -0.025686724, 0.00030354384, 0.010436408, 0.030362573, 0.05275138, 0.044857167, 0.029415535, 0.07406248, -0.0050001484, -0.024706848, 0.06764837, -0.022720924, -0.011878072, -0.031072557, -0.0261478, -0.005821301, -0.031881917, 0.049544495, 0.045635544, -0.053998582, -0.0154448515, -0.04676244, 0.012262872, 0.06951, -0.009644583, 0.026531892, 0.01736512, 0.010203205, -0.021279696, -0.058129363, 0.021535749, 0.00939205, 0.017972121, -0.034949146, 0.014846564, 0.036216937, -0.03105648, -0.047016043, -0.009224075, 0.0096983705, 0.0047091204, 0.02654293, },
{ -0.024775539, -0.02092191, 0.03112494, -0.02882369, 0.04357597, -0.004816945, 0.0010644533, -0.054106943, -0.03088948, 0.019367613, -0.001855364, -0.041079503, 0.03538451, 0.0203077, 0.019134471, -0.03628613, 0.02767934, 0.036810607, 0.0356259, 0.055000816, 0.07747144, -0.021145923, 0.04283282, -0.0025389567, -0.02880074, 0.035253834, -0.039795443, -0.036222495, -0.009574213, 0.06242946, 0.00049360696, -0.0060590804, 0.043131314, -0.013408898, 0.01076255, -0.0838492, 0.028126657, -0.03814301, -0.0007851949, -0.031557642, -0.024783138, -0.013213921, 0.032162085, -0.037101682, 0.0496635, 0.036342457, 0.00803835, -0.00021821559, 0.001698231, 0.005039074, },
{ 0.009312417, -0.027948814, 0.002110073, -0.007839622, 0.0024340008, -0.024444561, -0.08655037, -0.031077113, -0.0072531295, 0.0102196885, -0.0572847, 0.009190302, 0.014438621, -0.041045316, 0.05743868, 0.039228268, -0.053724542, -0.0067946003, 0.03823103, 0.056483775, 0.008292731, -0.015570068, -0.0404831, -0.02760139, -0.03162323, 0.0034000063, 0.04457798, -0.042274226, -0.014091265, -0.106932245, -0.026153205, 0.050141025, 0.05747448, 0.086198874, -0.050683882, 0.050330896, -0.037325427, -0.08046856, 0.013984029, 0.05839627, 0.017986327, 0.060236696, -0.0060777473, 0.014817512, 0.09137353, -0.027751993, 0.014309261, -0.036581505, -0.036611214, -0.0005207476, },
{ -0.0077897166, -0.012257467, 0.024290167, -0.018458702, 0.040107287, 0.015779426, -0.038066354, -0.0070713963, -0.03554637, -0.041759092, 0.025102416, 0.020616833, -0.018300252, -0.014456444, 0.037012275, -0.00034349004, 0.0047838786, -0.031868584, 0.0071482877, 0.040939886, -0.023203509, 0.061971247, 0.0449035, -0.06045672, -0.037234355, 0.07522243, 0.008893626, 0.011930648, -0.050119434, -0.040842656, -0.0026671838, 0.026968421, 0.008768514, -0.031520475, 0.0017138966, 0.04133883, -0.08478869, -0.011107383, 0.0917962, -0.034525156, 0.0010855283, 0.024547588, 0.042347275, -0.021662423, -0.044414572, 0.016099337, -0.08002137, -0.023133224, -0.0022533876, 0.014058644, },
{ -0.012808532, 0.044650704, 0.009170255, 0.014635809, -0.0054254825, 0.0072199097, 0.058801107, -0.012918201, 0.027671251, 0.01362609, 0.014908388, -0.025126398, -0.012115273, -0.038740035, 0.0021837244, -0.07388346, -0.040022872, 0.042665053, 0.0041006887, -0.05322886, -0.028788762, 0.026291318, 0.0028409867, 0.03388591, -0.025581466, -0.04281755, 0.04428012, 0.0030190733, -0.008985521, -0.028441196, 0.03199483, -0.008593184, 0.01068843, 0.01899372, 0.056784485, -0.023023998, 0.011337832, 0.030103613, 0.023817768, -0.03633045, -0.013020751, -0.07356665, -0.03493887, 0.034156542, 0.04835495, 0.016777748, -0.02688206, 0.009024499, -0.012398178, -0.0095595475, },
{ -0.005860691, 0.00983687, 0.0012729266, 0.039196916, -0.0028698517, -0.008059676, -0.021725992, -0.012908276, 0.05087752, 0.0026062434, -0.007901674, -0.045690518, -0.001948607, -0.07825064, -0.012750201, 0.03791594, 0.030335985, -0.023373486, -0.012075518, -0.015641166, -0.03150499, -0.0546839, -0.0063185412, 0.006335996, -0.021656353, 0.04632491, -0.03706287, 0.0102289, 0.06749587, 0.05772311, 0.032215692, -0.038851686, -0.009118761, 0.046066098, -0.045721218, 0.010181483, -0.048675563, -0.038686845, -0.05752303, 0.014747812, 0.058155973, -0.028518707, -0.04108931, -0.022730995, -0.018019347, -0.024561612, -0.022674978, -0.0007594657, -0.021775672, -0.04646756, },
{ 0.049604766, -0.04489523, 0.014259689, 0.06405043, 0.03306504, 0.015826931, -0.071496025, -0.040867407, -0.022989456, -0.0037534751, 0.0057231695, 0.02103224, 0.034301296, -0.024314491, -0.002775465, -0.041936226, 0.011308609, -0.011220772, 0.036013883, 0.0047977176, 0.0028838422, -0.057579108, -0.029134713, -0.054540116, 0.048123445, -0.008611701, 0.016611397, -0.032114465, -0.009659461, -0.030786004, 0.072094984, -0.04875446, 0.023258394, -0.02246201, -0.013532614, -0.03226065, -0.07484896, 0.0002507798, 0.04271608, -0.080102935, 0.04239353, 0.021843735, 0.0031865078, 0.089516036, 0.0026946096, 0.022654187, 0.030205442, -0.03063189, -0.033371106, -0.022830226, },
{ 0.00044579638, -0.0041671614, -0.037864003, -0.0010274302, -0.02014807, 0.028653217, -0.04146501, -0.044746082, 0.03845053, -0.024957836, -0.0033111444, -0.044469785, 0.009714964, 0.02547442, -0.014060019, 0.016823057, 0.03399259, -0.06811143, -0.027477589, 0.04354852, -0.02542772, 0.008056078, -0.012527122, 0.017373903, -0.018344047, -0.02953288, -0.006430979, -0.040581454, -0.003243723, 0.010565275, 0.012615373, -0.014055119, -0.089262746, -0.02691667, 0.027672827, -0.043726098, -0.06664444, 0.034274545, -0.051797178, -0.05227095, 0.000582751, -0.06579113, 0.021017415, 0.06979638, -0.0227361, -0.018271303, -0.03749632, -0.014963143, 0.024155587, -0.025436526, },
{ -0.030147891, -0.017406898, 0.018057713, -0.030361766, -0.0024547866, 0.010898528, 0.038815115, -0.005945157, 0.033728093, 0.004310416, 0.03722063, -0.007288802, -0.029979827, 0.013256576, -0.016192503, -0.008210237, -0.025101665, 0.027343417, -0.020400858, -0.03081849, 0.017154636, -0.03137385, -0.0055161635, -0.011431021, 0.0862033, -0.059010267, 0.0053126034, 0.007578294, -0.030402895, -0.027289324, 0.045057762, -0.0070229354, 0.023693101, -0.0020999284, -0.026277753, 0.02464958, 0.07335061, 0.008407231, 0.06383414, -0.025417367, -0.019307524, 0.00978667, 0.017430102, 0.035510797, -0.035670154, -0.04502347, -0.021066919, 0.020242369, 0.0069495426, 0.016549103, },
{ 0.036183223, -0.025164433, -0.01865196, 0.021876711, 0.0450731, 0.047359537, -0.030932898, 0.0392581, -0.015240718, 0.03003441, 0.009076237, -0.007624611, 0.0444294, 0.020543048, 0.013219275, 0.0036915243, -0.04378459, 0.024840355, -0.043965757, -0.05519907, 0.004767061, -0.025417125, 0.01857516, -0.030334964, -0.04001853, -0.012735941, 0.007682703, -0.026704725, -0.07928333, 0.06294354, 0.013848025, 0.038136665, -0.030026399, -0.0025030784, -0.008039277, -0.012425361, -0.05157282, 0.03417925, -0.09490163, 0.04417255, -0.015597885, -0.018464096, -0.0032798576, -0.06716983, -0.015511802, 0.0022157799, 0.006991621, 0.016087951, -0.04854936, -0.005333294, },
{ -0.012485467, 0.009894978, -0.026217645, -0.0005703601, -0.01232193, -0.02920388, 0.008219914, -0.029429184, 0.045349587, 0.0205964, 0.037590396, -0.00801947, 0.032537896, -0.021594739, -0.008528971, 0.020948144, -0.05940408, -0.03087975, -0.009040966, 0.05936028, -0.046021108, -0.032851793, 0.022286957, 0.028379075, -0.029509617, -0.03851863, 0.0055481186, -0.033832144, 0.022146884, 0.007041685, 0.08208462, -0.04547222, 0.021098148, -0.10014281, 0.0068774135, 0.0330387, -0.011588079, -0.01617854, 0.035321597, -0.053012613, 0.007885525, 0.058581, 0.025990594, -0.0077519785, -0.012893141, 0.017006962, 0.018867759, 0.00024492008, -0.02820172, 1.0346735e-05, },
{ -0.031171603, 0.017332071, 0.069253944, 0.021408575, -0.0616613, -0.009137354, -0.05923865, -0.00022646497, 0.050340835, 0.0060616992, -0.04349876, -0.0035030504, -0.016998628, -0.06996885, 0.026509373, 0.035899878, -0.039609816, 0.032779016, -0.004278321, -0.0011496092, 0.07329035, -0.024878081, -0.004122597, -0.038927533, 0.030131742, 0.06408929, 0.006049321, -0.03998454, 0.032530837, -0.016507745, 0.0046470487, 0.006617105, -0.06809269, 0.026114943, 0.010310608, -0.022472596, 0.05159251, -0.0259682, 0.023085844, 0.019105192, -0.010616479, 0.016942767, 0.0068004527, -0.04738674, -0.042207558, 0.018699229, -0.090034276, -0.08147305, 0.0332581, -0.02402031, },
{ 0.02225558, 0.025694171, 0.014400519, 0.049026027, 0.0044547003, -0.0071872235, -0.01756904, -0.073050566, -0.029196426, 0.035355892, -0.0052177976, -0.024192328, 0.03266076, 0.02512017, -0.0397527, 0.030429685, -0.03303266, -0.032294422, -0.025281081, 0.03327255, 0.023524787, -0.006889393, 0.011248901, -0.017053412, -0.06296474, 0.032223597, -0.031213937, -0.06230949, -0.010526225, -0.008533027, 0.04097432, 0.016166372, 0.018946085, -0.00049945037, 0.038248446, -0.032710318, 0.03983758, 0.017031668, -0.011147523, 0.011488845, -0.06511441, -0.092921756, -0.061618153, -0.014672871, -0.031458993, -0.017386863, 0.024983697, 0.0398169, 0.019395549, -0.06793868, },
{ -0.0047967113, -0.00082099816, -0.027837252, -0.07166263, -0.028014766, -0.004479227, -0.0062767244, -0.0063820477, 0.042794175, 0.028088396, 0.014413334, -0.002178687, -0.02987308, -0.010257186, 0.012036806, -0.017371695, -0.013099579, 0.014639369, 0.009441475, 0.05990754, -0.0024518177, 0.015545668, -0.0047150417, -0.03088187, 0.031941164, -0.018073946, 0.034332108, 0.026789444, 0.057731662, 0.0020065557, -0.028860448, 0.040324885, -0.0031770857, 0.025081128, -0.062021453, 0.060003985, -0.0029878768, -0.045638498, -0.02143232, -0.055717383, 0.0059756846, 0.046135854, 0.017392686, 0.047792315, -0.016229084, -0.0027594555, -0.022027574, 0.0145792905, 0.031514447, 0.019673713, },
{ 0.011460233, -0.019658796, 0.03254834, -0.0112330085, 0.05475012, -0.02647406, 0.0324665, -0.02397547, 0.0010862522, 0.0353269, 0.05390103, -0.058689564, 0.040716004, 0.020388447, -0.00677544, 0.064509764, 0.06861427, -0.030688362, 0.029190984, -0.057374977, 0.04397721, 0.018045982, 0.080095, 0.021739002, -0.023006525, 0.022144914, 0.03752623, 0.028024616, 0.00030792563, -0.009158373, 0.014619966, 0.0286689, 0.0123772295, 0.042272035, -0.010106787, 0.015349035, 0.0285661, -0.03679196, -0.07962873, 0.008237383, 0.035088666, -0.014937538, 0.005247037, 0.021309651, 0.032886043, 0.04506589, -0.006120331, -0.019495757, 0.08670777, 0.01853392, },
{ 0.052952416, 0.04883872, -0.021062523, -0.011159629, -0.020641211, -0.01864416, 0.036400095, -0.014334049, -0.032369833, -0.048142113, -0.026372733, -0.029212873, -0.049560014, 0.043947875, 0.04494617, 0.0347454, -0.021047212, -0.07726607, -0.043344025, -0.02911588, 0.06313801, -0.01375888, 0.06782664, 0.080145486, -0.073784485, -0.027460087, -0.012282683, -0.04727665, -0.0030689847, -0.018213244, 0.0059883515, -0.0436237, -0.011897056, -0.03264805, 0.009733999, 0.005343869, 0.020156706, 0.044249456, 0.012178245, 0.0016899997, -0.041832495, -0.036565654, -0.035531785, -0.0071406453, 0.032723993, -0.02322746, -0.008991664, -0.039365366, -0.017838012, -0.015587938, },
{ 0.0062975115, 0.019007081, -0.022081122, -0.0033433319, -0.054340914, 0.04044018, 0.025596533, 0.040152255, -0.03887409, -0.048446424, -0.053258672, -0.0009360463, -0.03636454, -0.056741048, -0.004535874, -0.0019781296, 0.026213605, 0.016630463, 0.039629776, 0.061662797, -0.00075413083, -0.035734467, -0.018054452, 0.0022560612, -0.010254267, -0.0072079543, -0.0030495247, -0.007907458, -0.08944039, 0.038133968, -0.043884233, 0.050865613, 0.007217459, -0.030958895, -0.04704461, -0.020789288, -0.02542863, 0.020111995, -0.030192856, 0.020991884, -0.0014635315, 0.058187775, -0.05025349, 0.04922174, 0.04217319, 0.012302884, 0.030156152, 0.00786351, 0.010070953, -0.003472174, },
{ 0.06250686, -0.03887189, -0.012444321, -0.0061336253, 0.05727185, 0.011684815, -0.025678074, 0.06250997, 0.0014414525, 0.001818562, -0.013141157, -0.028194813, 0.026425188, 0.06243652, 0.03090992, 0.025270822, 0.016945586, 0.026523553, -0.008729065, -0.009666528, 0.05240027, 0.01864886, 0.009256707, 0.04280602, -0.020970613, -0.0068269377, -0.031356525, -0.02928987, -0.013836484, 0.027044622, 0.051288247, 0.038484875, -0.0070290156, -0.011263406, 0.02952273, -0.045617223, -0.008411569, -0.026518239, 0.038805664, -0.0017575738, 0.0034262203, 0.015570099, 0.034819942, -0.022047492, 0.012912558, 0.0070926514, 0.004192013, -0.04528986, 0.052380484, -0.0061931857, },
{ 0.016460437, 0.0150612015, -0.030632066, 0.09295361, 0.102662265, 0.08272273, -0.053686246, 0.06465651, 0.044986233, -0.024045296, 0.056340225, 0.015343619, 0.043832738, -0.008306672, 0.009447114, -0.013359061, -0.026960714, -0.012347415, 0.015069804, 0.03641638, -0.043129396, -0.038280413, -0.020261746, 0.046890087, -0.029916689, -0.046184573, -0.036378067, -0.0048798146, -0.021164699, -0.031147847, -0.019429082, -0.075713165, 0.006182389, -0.020348184, 0.0693751, 0.020998904, 0.011995902, 0.023348706, 0.033288147, -0.006510175, -0.003218227, 0.011834477, -0.02304005, -0.00681063, 0.035431772, -0.015234647, 0.027155207, -0.015776169, 0.045020092, -0.028577128, },
{ 0.0105440235, 0.010394738, -0.054945823, -0.030951284, -0.034848526, -0.0067469114, -0.04496068, 0.018097134, 0.03630792, 0.016013596, 0.062095273, 0.06386497, 0.009564207, -0.024946513, -0.016094783, -0.001007462, 0.0015871173, -0.045814082, 0.008280469, 0.004249423, -0.0026651735, 0.008723551, 0.0074651176, -0.032106437, 0.039494622, 0.005307471, 0.0126218535, 0.05881891, -0.0004783046, 0.03214843, 0.005545086, 0.03175278, -0.0055041015, 0.056278173, -0.05579051, 0.0033281397, 0.009341983, -0.0611627, 0.04495445, -0.013941082, 0.0024234406, 0.0013176152, -0.057590704, 0.038553037, 0.024832172, 0.04130327, -0.016756747, -0.029359322, -0.023847984, -0.0921757, },
{ 0.016188644, 0.031743623, -0.037178576, 0.050551757, -0.007410027, 0.02182169, 0.0006639122, -0.00043216013, -0.046120048, -0.0011497159, 0.0055966577, 0.031149145, -0.00012538231, -0.034888785, 0.0013507624, 0.018201962, 0.038390633, 0.021002296, -0.043197468, -0.054804884, 0.083897896, 0.043765817, -0.022354785, -0.049012415, 0.023060914, -0.020335699, 0.03487565, 0.028498182, -0.01630636, 0.03808403, -0.030871147, 0.01839372, -0.009342993, 0.0025214797, -0.010489865, -0.0259329, 0.09013329, 0.0262904, -0.022985324, -0.00030783814, 0.028843213, 0.018755121, -0.04806461, -0.010163644, 0.02073166, -0.013125229, 0.05853841, -0.0046463637, -0.033735525, -0.041311227, },
{ -0.035460014, -0.016295133, 0.013665592, -0.004262432, 0.058826655, 0.042021543, -0.007675015, -0.01299533, 0.030382546, 0.0038553744, -0.06929261, -0.0275671, 0.071224414, 0.0043998165, -0.06138168, -0.046263415, -0.030396244, -0.050028384, -0.00866349, 0.027805813, -0.04425253, 0.0047953604, 0.03530584, -0.019660521, -0.018048927, 0.014648592, 0.06522453, 0.020279117, 0.026258672, -0.06613077, -0.0066003916, -0.0018677479, -0.03776005, 0.09243258, -0.044954285, 0.04033707, 0.058471743, 0.0397604, -0.013975237, -0.07768616, 0.06898906, -0.032389935, -0.0035419795, -0.008902119, -0.017520769, -0.017289102, 0.00028869978, 0.023203822, 0.076419294, -0.009206318, },
{ -0.018320678, -0.0033181275, 0.09424703, -0.006704898, -0.0045070285, -0.0074006096, -0.036142662, -0.03410127, 0.051095936, -0.04221344, -0.030986352, -0.010585465, 0.08364383, -0.028524745, -0.02874011, -0.014291687, -0.01546465, -0.00025357405, -0.0643489, 0.030215185, 0.026944747, -0.019953907, -0.016042793, -0.00040077066, -0.031616833, -0.036531877, 0.009286545, 0.03257042, 0.03085104, 0.01330126, 0.05234181, -0.04895456, -0.03760663, 0.009359328, -0.018458266, -0.016934767, -0.048499946, -0.04766852, -0.030144949, -0.02821008, 0.020791758, 0.023910608, 0.044024155, 0.013403694, -0.007777044, -0.0029603895, 0.066320345, -0.021830866, -0.0051708417, -0.004786416, },
{ -0.06884579, 0.034021262, -0.008549108, 0.08890946, 0.034396477, -0.06435846, 0.011666169, 0.004208928, -0.08149704, 0.009883085, 0.0082481755, -0.02344337, 0.009087614, -0.021630637, -0.008490559, -0.0024388393, -0.018937925, -0.024109133, 0.016020583, -0.009012977, 0.008286839, 0.018174851, 0.027200013, 0.0015142245, -0.005708052, 0.06770762, 0.07688231, 0.03174237, -0.023250796, 0.0040142178, 0.0058280705, -0.021485653, 0.013844155, -0.06320166, 0.030129392, 0.011706264, 0.0021438773, 0.034039896, -0.039088115, 0.0032123926, -0.011336723, 0.0103927115, -0.010327871, 0.042936854, -0.017309487, 0.0029654421, -0.0070826844, -0.0233246, 0.0063384003, -0.009274568, },
{ -0.018566933, 0.015847836, -0.014733247, -0.0337359, 0.0048088245, 0.053441428, 0.009655854, -0.017214151, 0.005265217, -0.061551012, 0.047953907, 0.03525632, -0.00173758, -0.012714946, 0.029396975, -0.014106112, -0.008915985, -0.027505452, -0.049596887, -0.006626526, -0.08442739, 0.0015544711, 0.062345237, 0.027457226, 0.011872918, -0.037216432, 0.022444142, 0.0685703, 0.020800155, -0.004603009, 0.002357658, -0.041907344, -0.02685882, 0.046814766, -0.014321146, -0.0065078028, 0.0024332006, -0.032624323, -0.012583069, -0.02074408, 0.02000853, -0.014802541, 0.071382485, -7.0702234e-05, -0.044694047, -0.03918261, 0.014617414, 0.006300291, -0.02912551, -0.007433738, },
{ 0.0023714285, -0.051725596, 0.0005275732, 0.012874308, 0.009930923, 0.081985645, -0.035504855, -0.0094338, 0.038714215, -0.035531532, 0.039130107, 0.023082204, 0.04522746, 0.0669246, -0.033986498, -0.040574767, -0.00039565467, 0.046259325, 0.004289251, -0.00094884564, -0.02359992, 0.056182165, 0.011062377, 0.045999464, 0.009757148, 0.047409393, 0.03735945, 0.040691398, -0.017122312, 0.011975723, -0.0024456135, -0.057321444, 0.022247367, -0.030525476, 0.024582747, -0.019168174, -0.0052109975, -0.054110356, -0.019018197, -0.005393192, 0.005542029, -0.0315309, 0.012165535, -0.013413373, 0.02414147, 0.010609963, -0.0054046996, 0.033916123, -0.05033839, -0.057774547, },
{ 0.051197562, -0.009054867, -0.0368393, -0.041052487, 0.021118075, 0.003963369, -0.03184436, -0.027611122, -0.008101509, -0.09724197, 0.08129853, -0.008801555, -0.052122857, 0.044976782, -0.03718726, -0.04974172, 0.055965014, 0.010841973, -0.06124461, -0.040478326, -0.015574858, -0.018592251, -0.033490647, 0.0095999595, 0.06485738, 0.02302901, 0.028580135, 0.009998509, 0.058273863, -0.0018623202, 0.017363891, -0.0034428916, 0.006855524, -0.047768045, -0.05214439, -0.002134098, 0.07522399, -0.023650564, -0.016709883, -0.012877809, 0.024248907, -0.05608277, 0.047530524, -0.020914134, -0.096243724, -0.07047557, -0.028692648, 0.009206285, 0.02180214, 0.008376209, },
{ -0.04311258, -0.01570637, 0.02379162, -0.010029454, 0.040193107, -0.021572158, 0.016034786, 0.017862692, 0.07902529, 0.014386448, -0.038911343, 0.026083846, 0.0249722, 0.056189682, -0.0013341613, -0.009085276, -0.03965579, 0.038204797, -0.054224994, 0.02529444, -0.0145142805, -0.023233801, 0.02868811, -0.06877913, -0.06344575, 0.0057827095, -0.043221552, 0.020019043, 0.015287659, -0.018669989, -0.04799952, -0.025963468, -0.059854757, -0.047441542, -0.060846485, 0.009128006, -0.039674837, 0.05362085, 0.017511036, 0.034026217, 0.042094454, -0.08994965, 0.0639385, 0.00045741367, -0.042101033, 0.003947967, -0.029736664, 0.026114313, 0.016642213, -0.016010318, },
{ 0.010503134, -0.003712946, -0.09719197, 0.011864519, 0.043839537, -0.030318242, 0.0025938943, 0.005989626, -0.020559385, -0.0048568994, 0.03010725, -0.022282232, -0.018912386, 0.0060646688, -0.011945911, 0.027480885, -0.0019514154, -0.0001566249, 0.0071729715, 0.089355946, 0.032145426, -0.04614286, -0.022678696, -0.004806338, -0.008694654, 0.048339814, -0.032317888, -0.02207476, -0.0031037715, 0.0055935206, -0.028873041, -0.043735933, 0.04161062, 0.023747783, 0.07583309, 0.009643031, 0.02516336, -0.060237445, -0.0015413447, -0.038642604, 0.0135400165, 0.012354163, 0.03349999, -0.020932216, 0.10396445, -0.016895412, -0.0058377334, -0.004210923, -0.0356952, -0.03991208, },
{ 0.016402105, 0.0055523682, 0.01734095, -0.050158616, 0.007112659, 0.054610055, -0.03173253, -0.023031766, 0.0048926147, -0.06292621, -0.055691876, -0.06272471, -0.043005288, -0.04206151, 0.008719517, -0.011028555, -0.025542708, -0.01761876, -0.027378695, -0.009945096, 0.042029534, 0.04160732, -0.007500028, 0.012693635, -0.06305948, -0.0072571975, -0.055556435, -0.0020337848, -0.013355399, -0.0037015132, 0.02533997, -0.025816176, -0.0059449193, 0.0039905095, -0.0017412613, 0.11745084, -0.011359904, 0.031420294, -0.021240212, -0.030585906, -0.00022328564, -0.00674222, 0.10331962, -0.056289855, 0.013778021, 0.00015084792, -0.011562578, 0.006974274, -0.025525717, 0.007135445, },
{ -0.017812837, 0.01299433, -0.0028722228, 0.046176437, 0.022822538, -0.08270381, 0.016388614, 0.020965813, 0.029481985, -0.024207242, 0.06381534, 0.044406183, -0.06258765, 0.022462605, -0.0041072015, 0.09322651, -0.026397495, 0.017814795, -0.03320592, 0.038316075, 0.038742002, 0.003930435, 0.027955232, 0.021723833, 0.0052999966, 0.023500226, -0.009103055, -0.023487985, -0.01772362, 0.017116996, -0.012514306, 0.059301227, 0.023152556, -0.001995341, 0.010976459, -0.020982672, -0.054074056, 0.028913977, -0.029660625, -0.01701876, 0.010002001, -0.027337443, -0.022283832, -0.019385103, 0.0019815909, -0.004019127, 0.0043502697, 0.042419642, -0.024624387, -0.030430684, },
{ 0.044695217, 0.06023095, 0.026737679, 0.008267802, 0.03891, 0.033869747, 0.03115889, 0.050160438, 0.026604434, 0.020814769, -0.005673573, 0.0006425297, 0.0049128016, -0.0789406, -0.041924614, 0.055735618, 0.109314255, -0.014572521, 0.029272905, -0.004595782, 0.0040662102, 0.01248451, 0.0618775, 0.07336045, 0.013164575, 0.002491655, 0.020387426, 0.025033096, 0.033295136, 0.041333377, -0.030224334, 0.02975786, -0.031509925, -0.060598437, 0.04078444, 0.012935145, -0.04036848, -0.016083388, 0.021465203, -0.013861062, -0.0075615803, 0.07205688, 0.018489705, -0.014150893, 0.022057723, 0.012939248, 0.015199358, 0.03489734, 0.08039602, 0.05533455, },
{ 0.00061211403, 0.00094732776, 0.036741797, -0.038699, -0.013661335, 0.026369188, -0.002347843, 0.0073357164, -0.008351471, -0.009476824, 0.036247373, 0.001189536, 0.00925493, -0.02312615, -0.008903598, 0.022818863, 0.020200273, 0.0063453494, -0.007875898, 0.0030729077, -0.025300844, 0.031721205, -0.021583043, -0.005839184, 0.008671135, 0.03254382, 0.057496116, 0.042489935, -0.036853623, -0.018625177, -0.010093532, -0.016311934, -0.0021065222, 0.05501374, -0.05473403, 0.014900282, 0.013751914, 0.010175817, 0.04034767, -0.060637996, 0.044815656, 0.019966338, -0.005720946, -0.026851086, 0.01240487, 0.022912867, -0.036893386, -0.072032474, 0.004220828, -0.10085886, },
{ 0.050393876, -0.055632513, -0.010799155, 0.05961714, 0.008590985, 0.01619245, 0.0512598, -0.031201454, 0.0076590413, -0.0066665737, 0.011748135, 0.016493218, -0.015662638, -0.024850275, 0.03198984, -0.032424495, -0.02772361, 0.03955734, 0.051117588, -0.07780772, 0.037815697, -0.036383435, 0.0028382868, -0.00077024556, -0.021208199, -0.05428622, 0.0062618605, 0.057207827, -0.01596892, 0.023157222, -0.022211185, -0.040275678, 0.009421637, -0.028172595, -0.019430878, 0.024584837, 0.039825834, -0.008324555, -0.048545398, 0.053140126, -0.03131228, 0.034589626, -0.035576653, 0.048290845, 0.025365707, -0.026914688, -0.03600642, -0.0313093, -0.01899782, 0.019923184, },
{ 0.0015452162, -0.029031292, 0.033747517, 0.036188427, 0.0021490238, 0.0012658171, -0.026344141, -0.011327786, 0.043942194, 0.002178205, -0.026246129, 0.015530238, -0.08806155, 0.022190949, 0.0072536767, 0.009659879, 0.029195549, -0.05785735, -0.0059623737, -0.041913524, -0.021872375, -0.007450499, 0.016907189, -0.04945473, -0.02057144, 0.03191375, 0.0066933613, 0.06001106, 0.008277072, 0.047950666, 0.003242099, -0.033162437, -0.03781982, -0.016166026, 0.013552933, -0.017122984, -0.030926142, 0.061153058, 0.076266244, -0.0009846673, -0.018890845, -0.06125347, -0.04305678, 0.059338443, -0.030691657, -0.024809757, -0.016949337, -0.0059943865, -0.012602856, -0.016552374, },
{ -0.090028495, 0.024112256, -0.056771677, 0.024497438, 0.042045616, -0.01818517, -0.0030712732, 0.010822518, 0.007989061, 0.043700278, 0.022639766, 0.05830158, -0.02919915, 0.06526684, -0.01765815, -0.023469277, 0.0014035683, -0.030561924, 0.008265722, 0.0031723515, -0.02055895, -0.037229136, 0.006956531, 0.021326523, -0.0015004395, 0.05228684, -0.005394824, 0.005401285, 0.051713277, -0.0002939594, -0.01553556, -0.009320746, -0.032231107, 0.032463748, 0.021820405, -0.011702898, -0.018845553, 0.020461045, 0.023080155, 0.033106532, 0.017952036, 0.014451887, 0.0057798373, -0.051883504, 0.01872281, 0.061635878, -0.053014558, -0.028758213, 0.038074106, -0.012959214, },
{ -0.059386346, 0.028899902, -0.039925247, 0.008077969, -0.036663778, -0.013612309, 0.030616475, 0.0055713886, -0.0056355647, 0.06895858, -0.09259919, 0.007439486, -0.011821535, 0.055587593, 0.049010612, 0.0036761258, -0.048232842, -0.009493909, 0.03012328, 0.030766476, 0.012154775, -0.022672696, 0.036008094, 0.0022972226, 0.04436575, -0.008090519, -0.07471628, -0.050759446, 0.020160193, -0.07742721, 0.013064044, 0.0042819227, -0.042233147, -0.026642874, 0.03552863, -0.061055247, -0.041728817, 0.036817387, -0.006202378, -0.0035411732, -0.01503653, 0.021029737, -0.011898271, -0.0029693753, -0.03958904, -0.081714846, -0.015045418, 0.005993982, -0.02766224, -0.040769484, },
{ -0.053465925, 0.054123785, -0.025571555, 0.03982604, 0.044630036, 0.031304166, -0.024998551, 0.023241013, -0.01095929, 0.022544261, -0.036561865, 0.003560358, 0.05211726, 0.015090872, 0.046080217, -0.046490423, 0.051194284, 0.008768921, 0.04293976, -0.015270182, 0.010740779, -0.024772044, -0.018764425, -0.0057836464, -0.017159024, 0.025979247, -0.030824844, -0.08657336, 0.0033197522, 0.020480398, -0.06088606, 0.026901554, -0.011599703, 0.03959106, 0.008127038, 0.008906691, 0.024535136, -0.020298932, 0.03338919, -0.031127116, 0.010865108, -0.0045937165, -0.015624933, -0.017184043, -0.024969507, -0.009834536, 0.030336766, -0.018879663, -0.006518506, -0.0006939416, },
{ 0.019997152, -0.023401665, 0.008286722, 0.054181926, 0.032127466, 0.0336283, 0.035788435, 0.01910787, -0.06535074, 0.07814044, 0.06522817, -0.03534685, 0.050472025, -0.034676947, 0.038456343, 0.053583708, 0.050638333, 0.008723825, -0.0013431472, 0.006530304, -0.026838282, -0.0051791854, 0.019587202, -0.07380537, -0.08822494, -0.05987058, 0.015184486, -0.06901635, 0.00046634226, -0.025453206, 0.066596515, -0.003467207, -0.0061473954, -0.06972895, 0.0056599556, 0.01897442, -0.02083204, -0.0038763115, -0.048266288, 0.031381585, 0.0391056, 0.03425444, -0.025369627, -0.017425602, 0.003840836, 0.019404003, 0.006993055, -0.0035778151, 0.053463787, 0.006541514, },
{ 0.017593686, -0.028299365, 0.025826102, -0.01152786, -0.024061253, 0.011008022, -0.02302035, -0.004937927, -0.029035578, -0.008699061, -0.04769726, -0.028318893, 0.0129756285, -0.008215308, -0.016406523, -0.05056943, 0.02549286, 0.02346573, 0.0007669109, 0.048017323, -0.11307691, -0.010263604, 0.062815584, 0.003753699, 0.048523583, 0.020235855, 0.01491207, 0.021017024, 0.02054622, 0.0029332538, -0.0032450357, 0.049121305, 0.06297968, -0.0032950018, -0.043093853, 0.022863708, 0.037694808, -0.018871596, 0.020804416, -0.011274859, 0.051209234, 0.009897105, -0.005705376, 0.008117257, 0.0010028821, -0.024836821, -0.01715353, 0.032630276, -0.012184308, 0.008839731, },
{ -0.010903915, 0.053278316, -0.003814536, -0.022549111, -0.07954127, -0.013198956, -0.014441837, -0.010758764, 0.02887138, 0.017594961, -0.015827013, 0.070593074, 0.017202005, -0.036628127, 0.020615723, 0.027914159, -0.010379263, -0.0061597433, 0.0367137, -0.023124022, 0.002030076, 0.0736717, -0.050001707, 0.039183863, 0.003322122, 0.016066397, 0.04811565, 0.04770595, -0.011647039, -0.028975083, -0.04951835, -0.03256966, -0.016988378, 0.07954448, -0.0066657173, 0.00064377993, 0.012352816, 0.01961594, 0.06364614, 3.3976867e-05, 0.00410208, 0.04169129, -0.06437743, 0.043799307, 0.051497232, -0.023124242, -0.015047509, 0.0017497861, 0.02130246, 0.0115091745, },
{ 0.016827213, 0.03423698, -0.030897846, -0.0057874187, 0.048861273, -0.010063329, 0.028570045, 0.009579817, 0.0028158547, -0.0068729543, -0.008439787, -0.026468066, 0.045323655, -0.1034394, -0.0066916244, 0.025088862, 0.054511055, 0.0028622414, -0.0032628379, -0.021090435, -0.012407577, 0.036570158, 0.007006509, 0.029118491, -0.024155905, -0.055759516, 0.01781083, 0.001632227, -0.023204703, -0.007161362, 0.030914865, -0.06296413, -0.008724347, -0.08320284, -0.07608104, 0.025018742, -0.0034931502, -0.05680099, 0.028339878, -0.0057064095, 0.012339883, -0.057800297, -0.014650555, -0.013132296, -0.009983151, 0.022834042, -0.07866959, 0.010020484, -0.010492626, 0.010011312, },
{ 0.009068879, 0.07318901, 0.02347753, 0.06262895, 0.008441923, 0.011910487, -0.009003741, -0.020337228, 0.002557881, -0.02427701, -0.061660692, -0.0009917571, 0.09182853, 0.0026775629, -0.008343076, -0.03693649, -0.015764197, 0.02527659, 0.07383394, 0.022787265, -0.006470945, -0.02067354, 0.030025449, -0.03999088, -0.06910355, 0.051157497, -0.01164566, -0.03082559, -0.0018284727, -0.0051423544, -0.03447749, 0.0010145709, -0.065317124, 0.043478336, -0.0064045056, 0.008503009, 0.008650325, 0.005837553, -0.0043984274, 0.03186809, -0.011055653, -0.005300912, -0.0075022113, -0.067140736, 0.027220957, -0.0037408061, 0.05549697, -0.0015375407, -0.0066901874, -0.030440517, },
{ 0.0045330864, 0.031568207, 0.058317866, -0.058966067, -0.009258705, -0.02178639, 0.0029250474, 0.06483195, 0.011863859, -0.034446567, -0.025553105, 0.03722658, -0.009070765, -0.11875328, -0.04486783, -0.037723534, 0.004264269, -0.023827946, -0.015582864, 0.025778482, -0.01018611, -0.029569104, 0.044427093, 0.03473008, 0.0009623226, -0.05433818, 0.037575815, -0.021584548, 0.015692052, -0.016889676, -0.024890497, -0.0046831397, -0.015155397, 0.0190336, -0.046613228, 0.048860617, 0.011666847, 0.032242354, 0.04071136, -0.002674813, -0.037121564, 0.03201904, -0.022419943, 0.041376945, 0.012418062, 0.02591407, 0.016892727, -0.07946062, 0.00399343, 0.07276164, },
{ -0.027490666, -0.014184199, -0.024543313, -0.0021899769, -0.06123208, -0.035758868, 0.013398961, 0.026573308, -0.08294552, 0.019371515, -0.05579121, -0.01352013, 0.0014037065, 0.051322583, 0.027213912, 0.014021013, -0.0011804453, -0.014925414, -0.026444908, 0.02026476, -0.050794106, 0.0015225337, -0.017471952, -0.017179808, 0.009354611, 0.024113491, 0.0076878886, 0.07007655, -0.042743623, 0.0632639, 0.046410136, -0.032595936, 0.0067579267, -0.06573437, 0.05742543, -0.010181986, -0.010925121, -0.07225833, -0.045571633, 0.0030062236, -0.036519777, 0.031174187, -0.009441575, 0.013918527, 0.021452317, 0.048924148, 0.028641285, -0.057964023, 0.061418746, -0.03581958, },
{ 0.034602158, 0.020926071, -0.05394618, 0.042855315, 0.00422768, -0.011837845, -0.034052327, 0.03465082, 0.007253718, 0.0063433438, 0.022523984, 0.008748568, -0.0029829429, 0.020300537, -0.035624042, -0.019565593, 0.049256682, 0.011351892, -0.03427562, 0.045021344, 0.02123897, 0.02585257, 0.026776593, 0.021896241, -0.020283341, -0.03625639, -0.0076606316, 0.051687215, -0.045928024, 9.277011e-05, -0.072197676, 0.035896763, 0.043384686, -0.016589124, 0.0054743662, 0.07763208, -0.013497936, -0.013920416, -0.00488946, -0.005901939, 0.045476545, 0.006708578, 0.016003551, -0.0037602372, 0.00011305277, 0.0057852175, 0.013834967, -0.07793183, -0.0034058199, 0.00050999096, },
{ -0.014938529, 0.052619535, 0.002453603, -0.03303435, -0.050649848, -0.041664872, -0.015167745, -0.006288015, -0.015429084, 0.008877597, 0.04268029, 0.04663856, -0.0022342082, 0.038735498, 0.02916835, 0.013896239, -0.012337582, 0.006700451, 0.007988125, -0.007554333, -0.016758844, -0.006014359, 0.04797507, 0.0042827446, -0.009028558, 0.0045007817, 0.038755476, -0.066959836, -0.008252386, 0.013866419, 0.05772447, 0.050059296, -0.041969914, 0.009646166, -0.019520888, 0.019449608, -0.041214857, -0.03127671, -0.02467614, -0.054146938, 0.029701468, 0.06760847, -8.138724e-05, -0.02446008, 0.02422939, 0.017178621, -0.0013080339, -0.007833392, -0.01515363, -0.021186432, },
{ -0.0024444722, 0.082108654, -0.019252686, -0.016093865, -0.010900079, 0.040556066, 0.026805032, 0.033911843, -0.059960645, 0.02250041, 0.018766748, 0.00977501, -0.0154081695, 0.006740514, 0.014713338, -0.006948336, -0.028450629, -0.024929544, -0.014443051, 0.039559953, -0.025454571, -0.015496112, -0.031325817, 0.031932566, 0.019662436, 0.07731657, 0.029173115, -0.0153814135, 0.008579269, 0.012642326, 0.0030841522, 0.019395031, 0.009519107, 0.08677434, 0.0014802765, 0.0068559186, -0.07206497, -0.02348548, -0.035316255, -0.048919186, -0.009489724, 0.036198698, -0.036396492, -0.03698688, -0.002929025, -0.06741416, 0.05076484, 0.025865177, 0.022756811, -0.056717597, },
{ 0.034916252, -0.037366714, -0.021613602, 0.08703158, 0.015603822, 0.010352054, -0.013282936, 0.0496713, 0.052167956, -0.02218448, -0.02756642, 0.0060012783, 0.01909004, -0.021459969, -0.0065038837, -0.029918302, -0.047589373, -0.017531749, -0.010981617, 0.03809167, -0.09567937, 0.09567808, -0.018186571, 0.044948153, -0.101276934, -0.035834324, -0.0046157422, -0.04685448, 0.010307213, 0.07027277, 0.008902421, 0.0432171, 0.02347795, 0.048028126, 0.01280315, 0.04490658, 0.006215582, 0.06360518, -0.027352264, -0.014629883, 0.112836055, 0.011195279, -0.040852778, -0.06725569, 0.08627016, 0.05075528, -0.0030419556, 0.01503155, 0.02792308, -0.03575332, },
{ -0.013024305, 0.036727067, 0.010092993, 0.040570743, 0.007666766, 0.021630133, 0.007784548, 0.0053836238, 0.016506873, -0.011504035, -0.03959259, 0.031130718, 0.011784757, 0.010313711, 0.008114784, 0.004863051, 0.011749746, -0.059582423, -0.015136192, -0.00057453715, -0.013274357, 0.038622804, 0.038429197, 0.022035023, 0.036508624, 0.020154497, -0.09263293, 0.01490802, 0.017890431, 0.038762327, -0.02560552, -0.018719468, -0.010236347, 0.01303129, -0.031931516, 0.050087932, -0.009873589, 0.014955955, 0.03070412, 0.059957698, -0.036757555, 0.0031665352, -0.05994935, -0.0021303105, -0.038841914, 0.042971898, 0.009831936, 0.028694438, -0.070906594, -0.015131333, },
{ -0.01463143, -0.019835634, -0.0766885, -0.037646476, -0.013110056, -0.0132403495, 0.032101728, -0.030913657, -0.019463008, 0.01846859, -0.053301077, -0.007176178, -0.002842467, 0.0014901045, 0.022336999, -0.03580209, 0.039399963, -0.0366012, -0.032089133, 0.028528066, 0.04443142, -0.052657522, -0.018304141, 0.04453271, 0.006944762, 0.008286044, 0.008722643, 0.016663646, -0.006145154, -0.02930522, 0.00034714089, -0.026870022, -0.06391496, 0.05274962, 0.0070625073, -0.053756893, -0.03576242, -0.0022290463, -0.079827346, -0.013373506, 0.009077811, -0.017226895, -0.022866553, -0.05724555, 0.017193334, 0.05426756, 0.0032718296, -0.01514964, 0.04333129, 0.016319763, },
{ 0.027246527, 0.052375223, -0.0357392, 0.046851147, 0.040354196, -0.041534536, 0.00760513, -0.039279565, -0.011319869, 0.046354406, 0.014632989, 0.024266345, 0.028934555, 0.0052938024, -0.0044156043, 0.033907097, 0.0047126585, 0.04943333, 0.023239227, -0.04056945, -0.008979388, 0.017275423, 0.03494716, 0.016048446, -0.010001497, -0.042151004, -0.06147205, -0.008878258, -0.044308037, 0.0035885628, -0.0048852237, 0.007237103, 0.004380433, 0.036045063, -0.044826154, -0.03603781, -0.036052585, -0.035556495, 0.050101317, 0.050736032, 0.017104562, -0.026385596, -0.03987311, 0.042603802, 0.018988488, -0.04254833, -0.07859367, -0.03162694, 0.0012558425, 0.009140638, },
{ 0.003672532, 0.027239487, 0.02498189, -0.060097072, 0.07510012, -0.012425103, 0.017142454, -0.034937054, -0.017091047, 0.07838789, -0.033867743, -0.024967832, -0.018886475, 0.04992487, 0.009167644, 0.033711653, -0.029471025, 0.0108191, -0.08554726, 0.033709772, 0.024458818, 0.009282458, -0.041888874, 0.018922012, -0.020304814, 0.025955591, -0.038793176, 0.02766407, -0.06434611, 0.058895804, -0.07680559, 0.004240663, 0.03256281, 0.08423201, -0.02283475, -0.06441401, -0.0370726, -0.02218831, -0.075802796, 0.0024615412, -0.036240447, 0.052605134, 0.021124598, -0.010472072, 0.08498651, -0.065681584, -0.0032222136, -0.0042916005, 0.059327785, 0.041997306, },
{ -0.03520595, 0.041504763, -0.075092256, -0.06405333, 0.030202053, 0.0013840544, 0.0016134892, 0.05335683, 0.0032410987, -0.0013621203, 0.017832642, -0.032107186, -0.052519266, 0.05493761, 0.036503714, 0.05884248, 0.014294756, -0.047927756, -0.03276203, -0.0139950765, -0.019024063, -0.028251644, 0.004428778, 0.04551505, 0.046376236, -0.014585052, -0.06848609, 0.053236183, -0.073873125, -0.03230451, -0.07199251, 0.05612396, -0.030218594, 0.056026977, -0.015142643, -0.10819417, -0.0015914082, -0.007171454, -0.060821, 0.046085343, -0.05505722, 0.027255956, -0.032084826, -0.02612087, 0.042405512, -0.020479705, 0.057756808, -0.025387602, -0.0011288043, 0.0030032895, },
{ -0.03029765, 0.035897687, -0.0076834722, 0.04358649, 0.004000709, 0.021258313, -0.045285624, -0.03225864, -0.022137389, 0.0028781595, -0.018967783, -0.032360606, -0.02996122, 0.044233646, -0.0012680196, 0.03000087, -0.019558435, 0.00015630611, -0.0156914, -0.047913283, -0.0006960525, 0.026973201, 0.011234687, 0.0006902106, 0.024285708, 0.016215535, -0.036875803, 0.0054190103, -0.06796087, -0.014010829, -0.014096808, -0.041931547, -0.0473345, 0.046137854, -0.05889684, -0.009283888, 0.023252754, 0.043964982, 0.018227367, 0.0742516, -0.0012521528, 0.043818433, -0.14411302, -0.012849319, -0.0028754023, -0.07508643, 0.028937867, -0.0349807, -0.01514393, 0.013936654, },
{ 0.057143126, 0.033369027, -0.13287269, -0.018708836, 0.0011307234, 0.0009553066, -0.03518238, 0.0009201877, 0.014342923, 0.060869813, -0.041384228, -0.07181965, -0.022198647, 0.0053565796, -0.034554347, 0.027458115, 0.033522394, -0.026029686, -0.035579808, -0.09552379, -0.03557293, 0.013836366, 0.021467874, -0.0071796486, -0.00803605, -0.055661302, -0.06536105, 0.050178867, -0.026033852, -0.017697465, -0.00090395444, -0.03032452, -0.03129991, -0.013251615, -0.014683174, 0.02439237, 0.0013618033, 0.0012840691, 0.042314865, 0.0074501433, 0.01458763, 0.05360503, 0.022438992, -0.054641437, 0.03590047, -0.019104043, 0.07675014, -0.046648234, 0.036251977, 0.052204225, },
{ 0.0150542, 0.012460871, -0.011792323, 0.025209365, -0.0018706042, 0.018822644, 0.007265189, -0.035674635, 0.038025364, 0.014040935, -0.009614289, 0.009889206, -0.01597908, -0.02504267, -0.03531557, 0.019158414, 0.009499546, -0.012022375, 0.014197358, -0.043370083, 0.002691615, 0.00051005237, -0.028094573, 0.013195108, -0.09761839, 0.049306814, -0.0023259379, 0.03991984, 0.012342443, -0.040915728, -0.006871291, -0.0042588967, 0.014386164, 0.075912125, -0.09706679, -0.02546306, -0.028979134, 0.04585268, -0.030479165, 0.028895246, -0.014966252, 0.03497469, -0.020844618, -0.02372642, 0.039897736, -0.072061375, 0.042301454, -0.053093106, 0.0012440026, 0.020578576, },
{ -0.0090009365, 0.016275814, -0.0040714284, -0.053826604, 0.042182192, 0.0055308603, -0.052621033, 0.024253229, 0.04766624, -0.002044561, 0.013743889, -0.014712114, -0.074615255, 0.030995037, -0.028343711, 0.015196941, 0.0030079854, -0.070823856, 0.036492683, -0.007953432, -0.03778424, 0.055343833, -0.019323923, -0.04063571, 0.052658275, -0.051470764, -0.05619043, -0.008472926, 0.010395629, -0.01255142, -0.0013524536, 0.013231753, -0.055834368, 0.063274726, -0.10174433, -0.06698216, -0.009440251, -0.025648156, -0.05368681, 0.04197505, -0.008179397, 0.026444746, -0.035338223, 0.003311155, 0.03549778, -0.037799083, -0.01346364, 0.050577614, 0.050915267, 0.05768417, },
{ -0.009279733, 0.0029763926, -0.04469302, 0.019573962, -0.04378604, -0.02447965, -0.019304665, 0.07542174, -0.059378494, 0.06926715, -0.03362586, 0.023405243, -0.0070646503, 0.05813904, 0.059529327, 0.009987424, 0.0059778653, 0.017224, -0.05211478, 0.023614444, 0.027442923, 0.015567558, -0.043627106, -0.05369228, -0.01237647, 0.0048476486, 0.022457339, -0.0013422435, -0.048926882, -0.029817047, -0.032791123, -0.018449562, -0.044304606, 0.087928824, -0.053438973, -0.081912786, -0.0028613484, 0.0518746, 0.018979037, 0.054634303, -0.0113114305, 0.022161784, 0.010857727, 0.029331893, -0.037981886, -0.044151075, 0.025919165, -0.008510503, -0.020801479, 0.054065596, },
{ 0.037810065, -0.012526285, -0.07870731, -0.023715502, -0.014679555, -0.042305134, 0.017210482, 0.05564767, 0.001138676, 0.023540221, -0.06563049, -0.05501558, -0.0147109395, 0.0037120304, 0.027537676, -0.0015596315, -0.048789855, -0.05351151, 0.031120624, -0.0075550014, 0.027672105, 0.02072799, -0.08335388, 0.04718898, -0.04158884, 0.009491256, -0.0012263085, 0.023689277, -0.016479803, -0.047963634, -0.02121496, -0.04847284, -0.038306735, 0.08154041, -0.051307235, 0.024155518, 0.049581666, -0.04869606, -0.053833786, 0.00053572224, 0.0013485564, 0.0231565, -0.09703971, -0.030762438, 0.035860617, -0.042187527, 0.058427993, -0.023658259, 0.01749032, 0.0097942725, },
{ -0.019053496, 0.025954595, 0.046083916, -0.016917571, -0.031104837, -0.066743605, -0.0083274, 0.035952106, 0.064396694, -0.00094653416, 0.046518628, -0.011468869, -0.096424975, 0.00759414, 0.048874132, 0.027405642, -0.010518898, 0.020061878, -0.014633562, 0.027056744, -0.020448517, 0.027023988, 0.031008769, -0.035404455, 0.026347188, 0.08196934, -0.04112403, 0.01860031, -0.006720179, -0.069758065, 0.013938766, -0.04600115, -0.023791218, 0.050527897, -0.022055471, -0.0076979958, 0.011564344, 0.025950607, 0.023642657, 0.032822292, -0.048575245, -0.06006951, -0.0058442843, -0.039751943, 0.0013332334, -0.030186918, -0.029809285, 0.0071983878, -0.04448093, 0.03493616, },
{ -0.0723939, 0.0052914177, -0.009699589, 0.0031442388, -0.037810262, 0.04348525, 0.01261929, 0.037131358, -0.0013102001, -0.030597007, -0.0262714, -0.016998855, 0.03556103, -0.046208575, 0.07024047, 0.07685603, -0.017440004, 0.06438367, -0.02890152, 0.03923933, -0.023514569, 0.053746924, 0.04917988, -0.04988941, -0.028103333, -0.026587851, -0.059326127, -0.002426341, 0.009126381, -0.057226863, -0.022427687, -0.008194924, 0.0119133955, -0.0017304666, -0.03782866, -0.06984823, 0.058916442, 0.0068050404, -0.05320596, 0.019082256, -0.048469085, -0.04256389, -0.0065926067, 0.028356578, 0.03141256, -0.042342104, 0.087783866, 0.033625178, -0.034279834, 0.029411225, },
{ -0.036118507, 0.06297998, -0.0325129, 0.0054468187, -0.022444198, -0.043592576, 0.030411515, 0.0125056105, 0.012070369, -0.025669202, 0.077899806, -0.007537675, 0.0017797698, 0.04408425, 0.03393919, -0.061912585, 0.025222812, 0.019001627, 0.052656464, -0.0130804, -0.009182751, 0.039927475, 0.0056234975, -0.049515042, -0.043048147, -0.025100168, -0.032578453, -0.01779329, -0.020457463, 0.033115968, 0.045140017, -0.033876464, 0.030231185, 0.0830106, -0.0854617, 0.026763413, -0.0060213637, -0.029643891, -0.05357349, 0.0048519676, -0.0433386, -0.009273035, 0.015025261, 0.047382202, -0.028649172, -0.044401333, 0.031464063, 0.0052884235, 0.014614854, 0.06678872, },
{ -0.053639255, 0.0074261, 0.006360331, 0.024772098, 0.009274771, -0.0069408896, 0.029912772, 0.0024655445, -0.037985902, 0.0018008058, -0.021278776, -0.007840877, 0.047216296, -0.035388924, 0.039653532, 0.07693836, -0.0144354515, 0.044973545, 0.029676259, 0.040560022, -0.027935384, -0.016742509, -0.026578756, -0.060324315, 0.046518132, 0.036818173, 0.03296858, 0.007822866, 0.018939987, 0.043194644, -0.045967266, 0.011857996, 0.022379773, 0.011919932, -0.0140401935, -0.037079804, -0.009319464, 0.032180127, -0.022412194, 0.0021708012, 0.029353876, 0.02932329, 0.0019999126, 0.02540367, -0.026304932, -0.040732916, 0.02849153, -0.07235136, 0.040321853, 0.011035124, },
{ -0.023862034, 0.052493297, -0.00042823338, -0.024665397, 0.03699685, 0.01607176, 0.025677005, 0.08161998, 0.07467552, -0.016619481, 0.010351628, 0.015153076, -0.08090108, -0.013385034, -0.030350324, -0.028587954, -0.056562036, -0.055841524, 0.043931168, 0.03148345, -0.022401784, -0.0073777502, -0.02365493, 0.007095775, 0.056785952, 0.019456, 0.023913514, -0.0054699965, 0.04867361, 0.00034685797, -0.012027758, 0.019849017, 0.009469633, -0.056015, -1.720531e-05, -0.0068623046, 0.043525726, -0.0328564, 0.031075181, -0.013170661, -0.05283838, 0.07376253, -0.01816688, 0.0070509003, -0.028141657, -0.09140729, -0.0004376586, -0.016911997, 0.012566486, 0.043131713, },
{ 0.008766478, 0.011758213, 0.0048502926, -0.024706656, 0.06873966, -0.035060875, 0.040742714, 0.07725429, 0.06765897, 0.0045876484, -0.021876425, 0.03133127, 0.0042405603, -0.013442915, -0.0039489195, -0.00047456473, 0.007765094, 0.016222224, -0.0013059811, 0.019872067, 0.035732973, -0.014148963, -0.026245069, -0.0041935956, -0.011818953, -0.008455307, 0.027012836, -0.016239213, 0.041378442, 0.030346638, -0.012387218, -0.042514384, -0.023312494, -0.017613886, 0.047684, 0.0027799676, -0.06632225, -0.044001102, -0.0077224644, 0.04992513, 0.014034255, 0.06129974, 0.0031233758, -0.0011348153, 0.03198921, -0.04436664, 0.07288641, -0.00083597365, -0.009953549, -0.0042205215, },
{ -0.005478272, 0.045553625, 0.059659448, 0.039218508, 0.057947226, -0.018899111, 0.0068041612, -0.0414943, -0.022513637, 0.034937225, -0.057501573, 0.0027758514, -0.028628198, -0.01994824, 0.066978306, 0.0320477, -0.047913183, 0.013991045, -0.02662944, -0.03325066, -0.008375492, -0.04020428, 0.029080598, 0.08020438, 0.0048293592, 0.013797036, 0.07266836, -0.048488308, -0.021869691, -0.016928243, 0.049531788, 0.033948176, -0.022900358, -0.033518545, 0.016382528, 0.056563277, 0.040152524, 0.010245218, 0.050552662, -0.006512329, 0.004347036, -0.02682971, -0.012773832, 0.01780085, -0.040804792, 0.025260141, -0.08299761, -0.014094836, -7.7363395e-05, -0.03421628, },
{ 7.052202e-05, -0.008525625, 0.06399902, 0.0039536525, 0.021003284, -0.033433966, 0.0105474, -0.023535725, 0.0054118643, 0.026192356, -0.059042636, -0.0048332186, 0.036030248, -0.010023067, 0.026975738, -0.030270118, 0.042111732, 0.03370435, 0.012470887, 0.016461138, -0.05804182, 0.051873766, -0.0018269665, -0.043947708, 0.013837325, -0.024870094, 0.02859614, 0.013725777, 0.021088215, -0.03234394, 0.00047803123, 0.033113346, 0.04390059, 0.019138433, -0.040254783, 0.0384406, -0.021625165, -0.002596725, -0.055548333, -0.01659621, 0.02863692, -0.031317487, -0.021757925, 0.002564825, -0.023834351, 0.01502581, -0.012134725, -0.019861199, 0.039382443, 0.008823763, },
{ 0.014598256, 0.040457547, 0.006222727, -0.012354664, -0.07322821, 0.034925066, 0.06058464, 0.010601885, -0.048442148, 0.02563953, 0.0141394045, -0.00237088, 0.0065881447, 0.04140867, -0.034270752, -0.03357919, 0.0072432677, -0.020392451, -0.019712023, 0.0055859424, -0.030529829, 0.0532214, 0.030315943, 0.029335683, -0.010461271, -0.010663211, -0.062176596, 0.016631028, 0.028680759, 0.0017048861, 0.025819365, 0.033905745, -0.019674486, 0.011667297, -0.078865044, 0.006300709, -0.0357986, -0.03574729, 0.06773899, 0.009498017, -0.077501215, 0.04408089, 0.0151261985, -0.028482806, 0.04561206, -0.010664809, 0.01001712, -0.018202577, -0.04138545, 0.05574615, },
{ 0.06752646, -0.02720419, 0.037172806, 0.016375244, 0.052881666, 0.003533898, 0.08140949, -0.050629366, 0.027106363, 0.044098932, 0.053929195, 0.033612862, -0.0033682499, -0.04821491, 0.014988299, -0.008362475, -0.04398611, -0.0020998192, 0.052937165, 0.026763594, -0.017917892, -0.033365868, -0.029193116, 0.018153787, 0.032034356, -0.051427394, -0.0017970935, -0.01213255, 0.0013186324, 0.015217429, -0.007657846, 0.054030664, -0.0676811, -0.08086891, 0.01754961, 0.0005046507, 0.029072544, -0.061267894, -0.013547809, -0.036319286, -0.034498725, 0.008963794, 0.009871736, -0.069585785, -0.018476486, -0.0047815247, 0.044519566, 0.03332189, -0.048254397, 0.055409793, },
{ 0.02374454, 0.03902425, 0.042076033, -0.012465639, -0.04727174, -0.042426445, -0.06997292, -0.0132416915, 0.011955203, -0.02885014, -0.06524497, -0.0008135249, -0.025146883, 0.02985759, 0.00059822225, -0.02815228, -0.057828676, 0.02911059, -0.024055202, -0.0136786, 0.013390648, 0.005396536, 0.035248525, -0.009544867, 0.0005909558, 0.052053344, 0.0018813697, -0.028697295, -0.0095512, -0.0034406686, -0.034311097, -0.04160144, -0.02774724, 0.057984952, 0.023751866, 0.019035371, -0.031911146, 0.028944332, 0.005023739, 0.03198687, 0.07342633, -0.05345971, 0.0064713894, 0.029531643, 0.020513097, 0.031443223, -0.057229575, 0.030945089, -0.0011767795, -0.013160639, },
{ 0.016760452, 0.014028495, 0.039859027, -0.03027888, 0.021163503, 0.022509469, -0.047241554, 0.003463734, 0.036067642, -0.018756375, -0.005852998, -0.005607544, 0.03189239, -0.023004217, -0.024201378, 0.024132, -0.021550758, 0.010999819, -0.009131124, 0.029919494, 0.096615486, 0.10444676, -0.0055808113, 0.025986401, 0.022353629, 0.019178301, 0.030594762, -0.024270214, 0.0046006176, 0.01616415, 0.049198136, 0.03120779, -0.027728952, -0.0134870745, -0.02697824, 0.08937815, 0.03569416, -0.032518066, -0.023874884, -0.03618712, 0.0071658758, -0.019225823, 0.0037584116, -0.004492817, -0.026037565, -0.04954316, -0.08416044, -0.020310968, -0.009817493, -0.017987344, },
{ -0.05927584, 0.036475796, 0.03908561, 0.03296509, -0.05031545, 0.06760077, 0.0064001507, 0.026047213, 0.00079372793, -0.0073361276, 0.016907359, 0.0034917938, 0.030556642, 0.041147906, -0.04284934, -0.016519114, -0.03969174, -0.04129205, 0.00039642619, -0.042247582, 0.096015625, -0.018354276, 0.011683715, 0.005322126, 0.023188626, 0.03729642, 0.034518775, 0.04300964, -0.0064579407, -0.004572366, -0.008713345, 0.03288337, 0.037709214, 0.0062664677, 0.018738406, -0.028884096, -0.038521014, -0.03251397, 0.032998465, 0.06874643, -0.060073253, 0.020156924, -0.04754446, 0.01102345, 0.040094066, -0.055965617, 0.015750268, -0.038357545, 0.0050089536, 0.0038926713, },
{ -0.045334883, 0.0040474352, 0.063292444, -0.009347311, 0.04165284, -0.071306825, -0.04559684, 0.019771501, -0.0011254007, 0.032178365, -0.021863418, 0.03955156, -0.033084933, 0.019113315, -0.041556742, -0.022454184, 0.012205797, 0.018571896, 0.007349797, -0.041864935, 0.014769129, -0.01661012, 0.014202118, 0.048717797, -0.062808305, 0.015575334, 0.034040514, -0.04382511, 0.043480955, -0.035636254, -0.01779888, 0.0021513144, -0.044212695, -0.006633691, -0.03620424, 0.014847172, -0.0045249304, 0.0034817832, -0.054750755, 0.066758856, -0.03392641, 0.023918416, 0.05686323, 0.07269637, 0.0011434059, 0.0031313328, 0.0090902615, -0.021276291, -0.059302837, -0.0145503385, },
{ -0.023382334, -0.005704679, 0.06477413, 0.0028930767, 0.028127452, -0.01069322, 0.0034782337, 0.031325236, 0.0037286219, 0.014438618, 0.05070221, 0.04391513, -0.065188155, 0.033547994, -0.036542628, -0.028023679, 0.016721608, 0.00718914, -0.03231372, -0.036253545, 0.0022362904, -0.022115156, -0.00075521733, -0.009697916, 0.026805991, -0.043619517, 0.025630467, -0.004837101, 0.026947098, -0.0013759837, 0.0053318995, -0.025706217, 0.101140134, -0.01825252, -0.000699724, 0.043427236, -0.032923438, -0.0045626517, -0.0019113369, 0.042759202, -0.013684015, 0.0728006, -0.023008084, -0.04568603, -0.032406468, 0.024729623, 0.010273323, -0.06974299, 0.0048515494, 0.010475265, },
{ 0.04212437, -0.12458015, -0.016229277, -0.02010189, 0.02636039, -0.011156126, -0.05317948, -0.010551229, 0.025669899, 0.045113854, 0.002979591, 0.001874206, -0.06651889, 0.009624895, -0.027160795, -0.0022039835, -0.049554303, 0.03243318, 0.009525603, -0.010452758, 0.014780105, -0.029509913, 0.036986835, 0.021005807, -0.0223643, 0.013222564, -0.0010596408, -0.018241232, 0.010676129, 0.032684118, -0.0024221684, -0.08151315, -0.0024997026, -0.010742849, -0.0013204769, 0.002420363, -0.010425464, 0.06395299, 0.015780384, -0.035663977, -0.009504579, 0.035687037, -0.0028711094, 0.03364807, -0.026524281, 0.023352658, -0.09493494, 0.035529327, -0.05219295, -0.009853648, },
{ 0.07256263, -0.002028687, -0.04590553, -0.009249809, 0.004784198, 0.016637797, -0.0035159006, -0.0055587194, 0.027489452, 0.058081254, -0.017773414, 0.044162787, -0.046031397, -0.036140025, -0.00239769, 0.02488571, -0.024685882, 0.03968391, 0.02941887, 0.033259798, 0.043332867, 0.009025077, -0.027019642, -0.046029825, 0.025353735, 0.056890316, -0.027027287, -0.03951562, 0.029021056, 0.00884762, 0.035365067, 0.03763193, 0.022272304, 0.054422155, -0.11017246, 0.042438716, -0.0129390685, -0.061230466, -0.024242245, -0.02089081, 0.08249963, 0.011080999, -0.0047527147, -0.0015256021, -0.0026091405, -0.02236001, 0.015058882, 0.02283067, 0.01065156, 0.008175693, },
{ 0.03563602, -0.0121735735, 0.0012757325, -0.036735468, -7.735266e-05, 0.034576494, -0.05188761, 0.047822762, -0.00021825964, -0.010824318, -0.03608045, -0.015273478, -0.03890557, 0.02272642, -0.015259488, 0.041734844, 0.041827746, -0.104848415, 0.04188558, -0.030360619, -0.117550686, 0.0168865, -0.02864631, -0.006725704, 0.023786074, 0.0107847145, -0.044287425, 0.039896093, 0.02259085, -0.025020914, 0.050356008, -0.051461633, -0.021640817, 0.052428436, -0.067473315, -0.014452604, -0.07839216, 0.00034497282, -0.042620104, 0.01318317, -0.0081386175, -0.0035427867, -0.021937108, -0.021679237, 0.056262404, -0.049635943, 0.0019073096, -0.019416003, -0.017717967, 0.021423088, },
{ 0.07408485, -0.014338885, -0.01919985, 0.036856323, 0.062530495, 0.0018422295, -0.015213325, -0.00487717, -0.062677264, -0.010963302, 0.05192945, -0.027324697, -0.043003704, 0.035414807, -0.017882833, 0.038799703, 0.041091472, -0.037635226, -0.08700439, -0.056670763, 0.061436404, 0.0703893, -0.047243565, 0.031423185, -0.019552933, 0.01717614, -0.01390146, 0.09314418, 0.04484143, 0.0060770526, 0.0161073, 0.019315638, -0.009491744, 0.03850531, -0.05663401, 0.021201227, 0.028264284, -0.060761962, -0.028683446, 0.010475142, 0.03326175, -0.032621436, -0.0065630157, -0.042776138, -0.008506669, -0.06616123, 0.02795093, 0.051095247, -0.03913964, -0.022138212, },
{ 0.024371486, 0.0035018548, -0.047840226, -0.025028197, 0.050887786, 0.0451927, -0.03292122, 0.01755594, 0.011205461, 0.016811445, 0.00013258225, 0.016535718, -0.0061033615, 0.051226262, 0.03535971, 0.05807005, 0.013514357, -0.031541254, -0.002674636, -0.020638896, -0.0984209, -0.030673336, -0.087939896, 0.0064312117, 0.029907543, -0.0010703367, -0.04441679, -0.014146789, -0.011179873, -0.08715506, 0.005566088, -0.07148715, 0.03968648, 0.067581885, -0.08264331, 0.024065247, 0.029867863, -0.05427528, -0.070112996, 0.04514962, 0.012028407, 0.0046863146, -0.11264656, 0.027808947, 0.02436983, -0.03611853, 0.04358405, 0.031899896, -0.0018904922, -0.009964172, },
{ 0.0608572, -0.079776704, -0.09496155, -0.033356216, 0.04639408, 0.085012056, -0.05934914, -0.023642857, -0.035859857, 0.054393567, 0.05939774, -0.02462601, -0.022790432, 0.04808579, 0.0009129806, -0.032012746, 0.032211885, -0.032362137, -0.090919524, -0.05705123, -0.090524115, -0.05999435, -0.055816524, 0.1453239, 0.05708083, -0.01020483, 0.02044224, 0.041552432, -0.089694254, -0.059262935, 0.016943704, 0.041972492, 0.10111807, 0.050470743, -0.04600555, -0.026180493, -0.053434253, -0.055986814, -0.04077073, 0.07444306, -0.046905678, -0.053300783, -0.07485191, -0.04058149, -0.03164417, -0.011208655, 0.06474654, -0.05322676, 0.017956026, -0.05738458, },
{ 0.054009736, 0.01267923, -0.13755992, -0.0039740005, 0.07904851, 0.01809352, -0.036556795, 0.04975449, -0.06604101, 0.09309764, -0.087639585, -0.0070857117, 5.7782843e-05, 0.039786432, -0.050254248, 0.007589365, 0.07917598, -0.053834412, -0.02457194, -0.046201974, -0.116241895, -0.06503361, -0.10608098, 0.050857145, 0.003885898, -0.038373224, -0.03702286, -0.06836406, -0.02262077, -0.06793605, -0.0210639, 0.006966437, 0.036552813, 0.18610382, -0.027383009, -0.071583785, -0.021568695, 0.003237088, -0.021309888, 0.07152967, -0.032061614, 0.08860974, -0.06460663, -0.055235006, 0.04094129, -0.092493825, 0.01124227, 0.04328352, -0.041576285, 0.013249302, },
{ 0.049722504, 0.04513833, -0.10481302, -0.0058704983, 0.031999692, 0.07688324, -0.039745398, -0.0038805322, -0.053795047, 0.08406812, -0.068119295, -0.018019713, -0.063112356, 0.016711736, -0.12379319, 0.03253107, 0.16313888, 0.002598319, -0.12093093, -0.033188388, -0.10435693, -0.0023009789, -0.06030934, 0.07689892, -0.07262535, -0.02760786, -0.041072335, 0.0022153987, -0.028698351, -0.096645854, -0.043607224, -0.0027238005, -0.012098668, 0.08737455, -0.10486599, 0.009336388, -0.056772515, 0.014817767, -0.022996783, 0.09413334, -0.07107816, -0.040956784, -0.055233877, -0.027357616, 0.02360627, -0.21041092, 0.04320097, 0.051417187, -0.027022393, 0.019681375, },
{ 0.013723302, 0.07036776, -0.024667943, -0.039599538, 0.090274036, 0.012297272, -0.026210513, -0.0038969335, -0.15108804, 0.053597145, -0.027863184, -0.0523354, -0.055150032, 0.09075583, -0.019063624, -0.055499442, 0.13617626, -0.08431771, -0.063565224, -0.08122769, -0.037828222, -0.013819926, -0.07695908, 0.017575867, 0.023346022, 0.024934577, -0.13246036, -0.02511139, 0.06061773, -0.06922581, -0.052004095, -0.03576408, 0.045296647, 0.17576674, -0.06838627, 0.04570152, -0.03180473, 0.029819617, 0.016392535, 0.05736749, -0.032325063, 0.04020173, -0.083252355, -0.063400835, 0.11073459, -0.07796524, 0.03574605, -0.012414271, -0.06432863, -0.05047024, },
{ 0.059245348, -0.06698708, -0.10682569, -0.036621667, -0.0435496, -0.03643673, -0.08809471, 0.034567486, -0.089410394, 0.074610196, -0.02136634, -0.014461125, -0.03908044, 0.07383582, -0.062450767, 0.07083669, 0.101709105, -0.017470753, -0.039801635, 0.024390897, -0.06776002, 0.024871968, -0.0072061764, -0.00453223, -0.008344169, 0.035287037, -0.054744728, -0.07901187, 0.033297926, -0.0687527, -0.14227232, -0.060932774, 0.0670485, 0.10058072, -0.11563663, 0.004749596, 0.010259734, 0.03616691, 0.014650681, 0.042267915, -0.025714107, -0.0016641453, -0.15926746, -0.08126906, 0.035664447, -0.04935976, 0.02571482, 0.02851996, -0.028276974, -0.026539456, },
{ 0.038987573, -0.020527957, -0.13598333, -0.051062234, -0.0072015445, -0.020268736, -0.07343283, 0.009485968, -0.08652146, 0.07392596, 0.0075123, -0.085681245, -0.007736482, 0.059522763, -0.029278124, -0.02680878, 0.02885692, 0.004477921, 0.022691099, 0.005631927, -0.07758436, -0.007846991, -0.061662637, 0.06959182, 0.036576297, -0.007813495, -0.049539324, 0.04187137, 0.010020284, -0.06689184, -0.0684002, 0.03771186, 0.05932156, 0.09806641, -0.08472138, 0.021367446, -0.021727175, 0.015755937, 0.05865162, 0.07180341, -0.11969064, -0.0645585, -0.062405296, 0.006109512, 0.03411208, -0.01676592, 0.019679476, -0.002785232, -0.0387149, -0.07604409, },
{ 0.016531466, 0.037498046, -0.040548984, -0.041615, 0.058858316, -0.0037229103, -0.08524263, 0.025073659, 0.0031573004, 0.048779704, -0.019078854, -0.030134764, -0.053809974, 0.09880406, -0.016527714, -0.01516825, 0.03407069, -0.002696586, -0.013046787, 0.039166544, -0.004873185, 0.043306973, -0.06592874, 0.06968996, -0.034403477, -0.018761525, -0.033189904, 0.09220978, 0.033552658, -0.00941556, -0.04993854, -0.06471415, 0.031207364, -0.008498066, -0.12210666, 0.023703353, -0.008876638, 0.13211398, 0.056620587, 0.09070596, -0.014599467, -0.04162088, -0.06871402, -0.06576474, -0.016870331, -0.025018243, 0.040139075, 0.080506615, -0.021996427, 0.101829305, },
{ 0.00037185638, -0.016158406, -0.09723942, 0.035096418, -0.019234195, -0.054100476, -0.051369112, 0.09806788, 0.00430199, 0.042381436, 0.07764299, 0.037058182, -0.025516389, 0.021698046, -0.05731896, -0.0048820283, -0.030429171, -0.04340209, -0.016006744, -0.0066341143, -0.069214135, 0.096616775, -0.028453786, -0.06069015, 0.040865652, 0.02599796, -0.06796204, 0.0018154306, 0.0076252385, -0.0020646919, -0.0019666224, -0.030878711, 0.06348448, 0.09502342, -0.029822461, -0.0670677, 0.0017679831, 0.077121004, -0.0041160258, 0.030773897, -0.08593274, -0.04142713, -0.03242362, -0.06754399, 0.053138103, -0.07846684, -0.0013227629, -0.0059841764, 0.006479631, 0.04199373, },
{ -0.08095476, -0.06859399, -0.025407284, 0.029783359, 0.008863092, -0.06653591, -0.012652766, 0.04914934, 0.030564288, 0.06550564, 0.0782192, 0.023756465, -0.09710732, 0.02058269, -0.004371786, 0.017716842, 0.036855984, -0.037790224, -0.018771766, 0.016687687, -0.045973808, 0.06312547, 0.035165798, 0.02074355, 0.02754806, 0.029931728, 0.010829454, 0.07963676, -0.013604561, -0.028661737, -0.02473845, -0.043734614, 0.032475334, 0.13165696, -0.031904615, 0.062625915, 0.027628087, 0.023860527, 0.029368194, 0.09438284, -0.053709026, 0.026790798, -0.050546058, -0.061760142, 0.036413193, -0.0027599265, 0.052365184, 0.03917262, 0.014986334, 0.09110501, },
{ -0.03503031, 0.036604736, -0.038061004, -0.01220724, -0.034525245, -0.11206795, -0.026019081, 0.029124355, -0.022411823, 0.033856995, 0.006844242, 0.009314574, -0.0027095638, 0.010934399, 0.044593763, 0.020177625, -0.029647503, -0.019003704, 0.0064235837, -0.011429198, -0.009221516, -0.016131165, 0.025886448, 0.004362956, 0.028744796, 0.010600238, 0.004083487, -0.0028441744, -0.060645055, 0.01893212, -0.06536437, -0.043752734, -0.019902978, 0.017140493, -0.034638345, 0.062124487, 0.04051632, 0.019893412, -0.011116302, 0.019959215, -0.08125112, 0.0015925986, -0.068355314, -0.032458816, -0.053398184, 0.008936974, -0.04221477, -0.13446465, -0.0012222005, -0.015622985, },
{ -0.0681988, 0.01420077, -0.0012027008, 0.03515872, -0.05774881, 0.010366049, -0.035970386, 0.0658632, 0.04285078, 0.050938766, -0.002842697, 0.010502564, -0.0068733925, 0.031862956, 0.06111319, 0.05480553, -0.0615436, -0.02759304, -0.05842116, 0.029324459, -0.015550775, -0.01678146, 0.069734536, 0.02072699, -0.04440884, 0.053210866, 0.0015461767, 0.0079994025, -0.051962182, 0.040122665, 0.038268857, -0.04672691, 0.060449835, 0.01473688, -0.031847592, -0.0064442973, 0.008079418, -0.0281728, -0.021341316, 0.07167032, -0.044529036, -0.013012594, -0.0421028, 0.009207072, 0.046336215, 0.0033029353, -0.024838889, -0.07729031, 0.062139004, -0.0038637167, },
{ -0.03692271, -0.028102297, -0.04268042, -0.007830153, 0.084742926, -0.059448343, -0.022532472, 0.008100127, 0.050547406, 0.008535016, -0.031478267, 0.00039500275, -0.0254743, -0.023524646, 0.041949272, 0.03482275, -0.005923846, -0.026952809, 0.022318339, -0.019150803, -0.054360192, 0.013722524, -0.060705278, 0.06930566, -0.04142062, 0.06293528, 0.0338189, -0.003995398, 0.0004857259, 0.0051089935, -0.03355058, -0.013771174, -0.08124163, 0.006363793, 0.0034994425, 0.009064155, -0.064135924, 0.006188857, 0.009001969, 0.043012504, -0.016411103, 0.004255937, -0.011645921, -0.082817554, 0.02780794, 0.06263497, -0.055856675, 0.030376602, -0.007933189, 0.022112148, },
{ 0.024618207, -0.009030214, 0.0069839493, 0.04433609, 0.047854397, 0.003289865, -0.003960577, 0.022017611, -0.045087926, -0.030872084, -0.071024284, 0.06420114, 0.049493555, -0.04362331, 0.022542505, -0.027121019, -0.008824835, -0.012155422, -0.01603146, -0.024204222, -0.0006255645, 0.0148203075, 0.0005123843, 0.007240283, -0.022097707, 0.04401213, -0.018981414, 0.05913126, -0.02380598, 0.02111949, 0.010287093, 0.014451311, -0.002302888, -0.01097747, 0.007892388, -0.0047797207, 0.024950987, -0.011307034, -0.0549269, 0.0366564, 0.039057672, -0.05137449, 0.07887906, -0.018013906, -0.027530076, -0.029096697, -0.026378667, -0.014435111, 0.010160403, 0.041689444, },
{ 0.011414937, -0.0376588, 0.001803985, 0.017090596, -0.00016877562, 0.037552107, 0.019046383, -0.039517164, 0.005093209, -0.02320695, 0.015543642, -0.014191525, -0.0057891333, 0.023796454, -0.005039109, -0.007540207, -0.026326524, -0.041305613, 0.019053042, 0.075059675, -0.059163142, -0.06349588, 0.02656172, -0.008464365, -0.042011634, -0.07870605, -0.066456564, -0.015488616, -0.024590708, 0.014433716, -0.022091702, 0.031185158, -0.021683568, 0.07834048, 0.012094402, -0.064200744, -0.0626434, -0.02842465, -0.022999201, 0.006082168, -0.013049286, 0.037637994, -0.044630226, -0.018226884, 0.002438237, 0.000553139, 0.05752613, 0.021421492, 0.0624779, -0.02270793, },
{ 0.016400667, -0.060048554, 0.037279516, -0.019895276, -0.00043504604, 0.07068836, 0.027534302, 0.017311469, -0.057021655, 0.015000258, 0.0046395157, -0.0054969424, 0.0032091395, 0.103420354, -0.06970195, 0.025465915, 0.020967456, 0.049295504, 0.023551527, 0.029032186, -0.007534886, 0.012442965, -0.0017279773, 0.015469444, 0.020528583, -0.03868683, -0.042889006, -0.0268411, 0.00080556626, -0.059534013, -0.013192282, 0.021286452, -0.020497372, 0.019858286, -0.021329414, 0.033358667, -0.02690134, -0.013505515, 0.043713428, 0.038626377, -0.014518699, 0.065036155, 0.0462839, -0.012437941, -0.0002594037, 0.036733665, -0.008274182, 0.011700256, 0.033978667, -0.015131341, },
{ -0.019037612, -0.042247154, 0.024171168, -0.020948624, 0.07708042, 8.534777e-05, -0.05467115, -0.03001333, 0.0030839737, 0.03670311, -0.014093734, -0.021610184, -0.03470211, -0.034162816, 0.01551446, -0.0063489447, -0.022367502, 0.051231943, 0.030370485, -0.05333729, -0.037503634, -0.021999856, -0.0015873011, 0.0043536127, 0.09982895, -0.0007708548, -0.00910964, -0.04095902, 0.01883578, -0.020338146, -0.12579586, -0.014508802, 0.024363516, -0.015353304, 0.023136016, 0.037204202, -0.04617052, 0.03580883, -0.049036924, -0.0007270524, -0.0036468315, 0.0473889, -0.020652529, 0.030932544, -0.017234292, 0.046829294, -0.020312952, 0.05446764, 0.031993583, 0.03940901, },
{ 0.016480947, 0.044796806, 0.048803024, 0.0031535006, -0.018788518, 0.03156368, 0.008522013, -0.00071677257, 0.015006401, -0.008038065, 0.021367641, -0.012289549, -0.017961701, 0.008137384, 0.01582775, -0.037326626, 0.045564923, -0.0060444796, 0.025316996, 0.055562902, -0.0029461752, -0.06903728, 0.024487453, -0.004246807, -0.036993165, 0.0077177514, 0.04319332, -0.042106155, -0.01103192, -0.00021211208, 0.034471624, 0.0025989364, 0.05523033, -0.08065536, -0.006410893, 0.057768837, -0.021431033, -0.0073148175, 0.028781682, -0.035686173, 0.004716526, -0.008981748, -0.021975072, -0.01072209, 0.013046592, -0.007260488, -0.090800576, 0.025654338, 0.016361643, 0.032955162, },
{ -0.02037702, -0.07083549, -0.026597468, -0.066210955, -0.02117875, 0.03995308, 0.022507232, -0.04319923, -0.04028547, -0.018686997, 0.024499372, 0.020709202, -0.019380366, -0.026678916, 0.049026746, 0.019097822, 0.016926814, 0.07639369, 0.0130896885, -0.078880005, -0.028053204, -0.10371994, -0.0044862116, 0.029587083, 0.0068981596, 0.0059859473, -0.012385053, 0.05565743, -0.031044604, -0.0071699545, 0.0067815315, 0.00714536, 0.048944343, 0.007734745, 0.01576622, 0.08797439, 0.036873095, 0.01055391, 0.0034978096, 0.05851418, 0.08517203, 0.047844265, -0.02931127, -0.077507764, -0.06843021, -0.025281098, -0.03249651, 0.038414385, -0.0015447361, -0.0018824005, },
{ -0.036636904, -0.044423994, 0.018467326, 0.0385325, 0.009610638, 0.01825134, 0.002699469, -0.050391093, -0.028464666, 0.006682147, 0.030875377, 0.012994479, -0.004698529, 0.02682545, -0.01581775, 0.030041665, -0.014050762, 0.04949226, -0.00089570007, 0.00638904, 0.005648187, 0.066648476, 0.0053692446, 0.017744154, 0.027116096, 0.039372932, -0.00011044214, -0.00986047, 0.032169156, -0.017339649, 0.010473587, 0.013946569, 0.0435228, -0.003816683, 0.013247433, 0.001413919, -0.004761231, 0.006020231, 0.03958084, 0.0017481693, 0.010900388, 0.035176955, 0.053309448, -0.00917744, -0.06090088, -0.06425313, -0.06277292, 0.030946674, 0.061797064, 0.023365473, },
{ 0.023838747, 0.0293372, 0.017882392, -0.008321675, -0.0659593, 0.032758128, -0.003252137, -0.085469246, 0.050314102, 0.021877458, -0.025810078, 0.0055279196, 0.0671878, -0.06297966, 0.02852701, -0.06063223, 0.021255538, 0.04667185, -0.032396764, -0.038062796, -0.03335388, -0.006554904, -0.007337224, 0.010005944, -0.035082266, -0.038988266, -0.006722321, 0.02062158, -0.041077144, 0.028918672, -0.04269359, 0.0030508076, -0.007853314, -0.05338832, -0.0009385207, -0.013849967, -0.052207027, 0.047728192, 0.013635676, 0.06286226, 0.018470949, 0.025243131, -0.014993289, 0.00666285, 0.05322427, -0.0016305498, 0.0827229, 0.0071266466, -0.0069858497, 0.035915688, },
{ -0.07564132, 0.031938396, -0.010247482, 0.0302716, -0.014617246, 0.016845642, -0.0135602495, 0.033196058, -0.0066196, -0.05222597, -0.004441451, -0.008334168, 0.026089719, -0.036885787, -0.051943652, 0.039032284, -0.0025850716, 0.005567029, 0.0054792063, -0.03613051, -0.04359692, -0.010748938, 0.0028438251, -0.011028626, -0.046172854, 0.040728737, -0.04367774, -0.071257696, 0.009877625, 0.039274797, -0.009153974, 0.03245957, 0.020063983, 0.005265062, -0.039076768, -0.033275887, -0.024155142, -0.03209309, -0.020066742, 0.019557869, 0.030136751, 0.008515263, -0.031698454, -0.05910241, -0.0025419851, 0.06136393, 0.02333688, 0.0022915518, -0.033332214, 0.014395743, },
{ 0.019740162, -0.012378735, 0.023454264, 0.054712314, 0.055748567, 0.01595589, -0.015937144, -0.022797253, -0.07519652, 0.009540977, -0.04732616, -0.037487388, 0.040866278, 0.0022362918, -0.024551159, -0.0098911775, -0.02559682, 0.05045176, -0.008192435, 0.025546761, -0.08044601, 0.015593837, -0.03474014, 0.02433369, -0.040819626, -0.0044506816, 0.03472595, 0.04447974, -0.041419048, -0.01665468, 0.04188756, -0.019971985, -0.043842427, -0.015855825, 0.00840933, 0.034791224, -0.0026806467, -0.016164972, -0.013499854, -0.048437256, 0.03096925, 0.02362855, -0.0094062, -0.07239623, -0.043028973, -0.05047471, -0.05615091, -0.056589477, 0.06682419, -0.013711503, },
{ 0.019766659, -0.09898574, 0.04646901, 0.03680442, 0.0033070839, -0.05423224, -0.023612177, -0.015722288, 0.00836068, 0.016869998, -0.048555523, -0.0076294513, 0.03335306, 0.0540828, 0.017760828, 0.03771334, 0.022433447, -0.057390276, -0.0038801427, 0.048295587, 0.011117053, -0.011092219, 0.088507995, 0.03304208, -0.020239357, -0.006925142, 0.016681323, 0.021194234, 0.038180172, -0.005888197, -0.025580443, -0.036473844, 0.06167276, 0.02713469, 0.039893944, -0.018323502, 0.003790583, 0.04143536, -0.05407652, 0.015465491, -0.03629835, 0.014215518, 0.04111048, -0.0034851723, 0.009472726, -0.063162625, -0.00029712514, 0.018168675, -0.00055597245, 0.0015532682, },
{ -0.02247952, 0.044788823, 0.03855212, -0.024193767, 0.046447936, 0.057746857, -0.09290617, -0.121415, -0.080915585, -0.02201101, 0.020087954, 0.013796923, 0.07949953, 0.012759793, -0.026533917, 0.027503857, 0.0030483815, 0.064085916, -0.030735048, -0.032591227, -0.028407142, -0.00781688, -0.0456974, 0.040565982, -0.075913884, -0.023798387, -0.013473484, -0.040299177, 0.034539465, 0.0027393242, 0.035044536, -0.011000318, -0.02407003, 0.043677393, -0.022607645, -0.029038344, -0.008811612, -0.009115633, -0.014740773, -0.023837818, 0.0030968075, 0.024132682, -0.037396453, 0.03987736, -0.09008701, 0.011832461, 0.04044938, 0.013864483, 0.034564346, -0.029064411, },
{ -0.032564048, 0.02659533, 0.0073347306, -0.0145331975, 0.023183223, -0.012702466, 0.021603093, -0.033319317, -0.01886477, 0.0004218938, -0.036349945, -0.041110303, -0.050417643, -0.05283048, -0.048281424, 0.031413734, 0.06425315, 0.00424197, -0.025361348, -0.0167171, -0.0051251543, 0.012808554, -0.061893854, 0.044203963, -0.007816484, -0.058478717, 0.005564681, 0.029220732, 0.030964179, 0.022704637, 0.051679403, -0.0123628145, -0.022072602, 0.07032212, 0.024573829, -0.004419695, -0.0065565617, -0.050035536, -0.019259768, -0.06590412, -0.0066285455, -0.022913476, -0.05225827, -0.043822467, -0.0633785, 0.0022995896, 0.039901048, -0.049776267, -0.032110386, 0.024365474, },
{ 0.061357606, 0.10809409, 0.009407954, -0.023940064, 0.021564417, 0.04620367, 0.038487073, -0.035638046, -0.0035748072, 0.07677939, -0.012308308, -0.045697797, -0.022731919, 0.03171816, -0.082055554, 0.039584596, 0.07566182, 0.033352014, 0.0015380002, -0.028083144, -0.036271594, -0.0730196, 0.01315081, 0.073020354, 0.038635723, 0.0062147668, -0.049953844, -0.033924785, 0.039225534, -0.041192017, -0.024857266, 0.060250968, 0.065248884, 0.07845245, 0.017051669, -0.040235072, 0.01299906, 0.04583624, 0.013450207, -0.12288864, -0.005298431, 0.032870505, -0.015689805, -0.030145025, 0.025923142, -0.024822336, 0.043969493, 0.0011955436, 0.013737705, -0.073121466, },
{ 0.06420409, 0.017103516, -0.061987385, -0.052988987, 0.08494477, 0.067834966, -0.00621448, 0.0020886487, -0.09619478, 0.049538188, -0.02014351, -0.049269512, -0.04678211, 0.0675561, -0.034592662, 0.061864235, 0.07182975, -0.033591278, -0.047281593, -0.0083024725, -0.07449773, 0.021008646, -0.05519482, 0.09724535, -0.004705826, 0.008199755, -0.061701074, 0.0061738347, 0.058178674, -0.10255742, -0.03498731, 0.022212002, 0.029673085, 0.03663183, -0.077693775, -0.054300558, 0.028754704, -0.016243173, 0.043801833, 0.029910212, -0.007910106, -0.02096319, -0.06884473, 0.008115659, -0.004349335, -0.07503916, 0.09456248, -0.05318164, 0.01465827, -0.044794586, },
{ -0.011861554, 0.06518988, -0.08719179, -0.018760337, 0.07955422, 0.13701947, -0.05786232, 0.06956889, -0.14396918, 0.098097965, -0.15175429, -0.016822929, -0.08106806, 0.08030625, -0.14518467, 0.0053774677, 0.07605562, 0.029373882, -0.03343353, -0.06441475, -0.07068819, -0.022390978, -0.086565256, 0.1111411, 0.0882525, -0.053414315, -0.037470266, -0.06491385, -0.0009019045, -0.10056742, -0.06586621, -0.00383751, -0.011475832, 0.059221588, -0.0111262975, -0.0567993, -0.0067952313, -0.025492748, 0.058587186, 0.022268824, 0.005539, -0.040172912, -0.05184499, -0.04252647, -0.019203873, -0.12994939, 0.07844189, 0.015636576, -0.009212998, -0.0327595, },
{ 0.11052905, 0.06818842, 0.0005518064, 0.009004033, 0.049560007, 0.10865504, -0.056401506, -0.06658968, -0.18275459, 0.10259003, -0.09186733, -0.047601692, -0.08034575, -0.0055296575, -0.095537685, -0.029912086, 0.12532622, 0.057701375, -0.09000927, 0.0050948258, -0.07026276, -0.06550184, -0.1536817, 0.070248805, 0.060422778, -0.07115877, -0.07444128, -0.14981845, 0.0143531645, -0.100630715, -0.039905902, -0.007289322, 0.105784796, 0.103674024, 0.021747828, -0.044933263, 0.02810994, -0.06401447, 0.08452774, 0.015944177, -0.012306838, -0.073105544, -0.0677219, -0.0016788829, 0.0067146462, -0.04840052, 0.0960809, 0.103396505, -0.055673283, -0.13955851, },
{ 0.08031878, 0.055315167, -0.1179031, -0.013881404, 0.06464648, 0.13025127, 0.0019492467, -0.020411823, -0.17728719, 0.034163717, -0.046462458, -0.01551129, -0.16670786, 0.06505657, -0.10053131, -0.01745884, 0.11553399, 0.03571703, -0.07198028, 0.027879562, -0.038738582, -0.08218238, -0.118004374, -0.028869532, -0.007700274, -0.018919187, -0.054674968, -0.02665982, 0.08595664, -0.08907123, -0.011192988, -0.040375944, 0.08841993, 0.10941417, -0.053484794, -0.05573203, 0.0051687867, -0.10361488, -0.010777055, 0.04594745, 0.040271666, -0.03544288, -0.018675478, -0.02475756, 0.043753654, -0.11430816, 0.112615466, 0.049862895, 0.068277426, -0.119680285, },
{ 0.06779535, 0.015378627, -0.06217387, -0.044226315, 0.049283393, 0.13531488, -0.056199323, -0.030455833, -0.18874107, 0.13776879, -0.07505477, -0.084292166, -0.11627604, 0.05789684, -0.0677795, 0.010560944, 0.058852658, 0.026124388, -0.025642531, -0.023024263, -0.15171468, -0.07517989, -0.14480656, 0.12738977, 0.06680239, 0.020547252, -0.027062219, -0.15923755, 0.08357035, -0.09951768, -0.08823316, 0.03644047, 0.06658427, 0.00089270214, -0.07055638, -0.0074634417, 0.008521337, 0.016252266, 0.11860719, 0.07440456, 0.039439887, -0.006471189, -0.04798239, -0.10275197, -0.032704405, -0.07039222, 0.010206348, 0.014314307, -0.0127325235, -0.113619514, },
{ 0.1483135, -0.0056798547, -0.042409196, -0.07756107, 0.084823005, 0.094078906, -0.07639324, 0.0126700215, -0.2072515, 0.16190262, -0.14101143, -0.068519995, -0.17493215, 0.048579425, -0.049173333, -0.009563892, 0.09401162, 0.081837386, 0.0014373115, -0.107261844, -0.071457274, -0.11190011, -0.061439313, -0.011187691, 0.053117365, 0.03446262, -0.04226304, -0.15951091, 0.099635005, -0.060878024, -0.06433956, 0.13104716, 0.09212359, 0.0134909265, -0.021712895, 0.008963522, 0.000385205, 0.004933757, 0.013659912, 0.11649, 0.08123637, 0.008568971, -0.008030759, -0.03716888, 0.07342656, -0.06343037, 0.029430011, 0.033723295, -0.024940956, -0.13767028, },
{ 0.194432, -0.018293187, -0.03561385, -0.12709181, 0.041887883, 0.07575496, 0.004376955, 0.0648134, -0.13887377, 0.0856248, -0.074118435, -0.053614523, -0.07062472, 0.08377943, -0.072996445, 0.004731886, 0.12766492, -0.0042453087, -0.027022418, -0.010294859, -0.09380263, -0.07666781, -0.058222655, 0.006146195, 0.09646354, 0.06956092, -0.042597454, -0.087958924, 0.04913119, -0.04478147, -0.092620455, 0.14755829, -0.010588351, 0.0017217539, -0.061997846, 0.10522341, 0.015496534, 0.08946128, 0.034003284, 0.14884178, -0.049101986, 0.007332938, -0.03764357, -0.11504917, 0.08452558, -0.006417921, -0.058628555, 0.07920118, -0.054392524, -0.14605542, },
{ 0.08414217, -0.002556682, -0.013407024, 0.0034656574, -0.022704434, 0.074906886, -0.07546608, 0.062494017, -0.095644146, 0.17622212, 0.01591642, -0.08036337, -0.06253714, 0.028129663, 0.026876265, -0.0066014123, 0.12098166, 0.0048151566, -0.06946554, -0.031743135, -0.04123154, -0.13166799, -0.011649048, -0.030088326, 0.09433549, 0.07869381, -0.01552292, -0.045199838, -0.007593406, -0.0679017, -0.0016019766, 0.07964572, 0.056087725, 0.048428588, -0.05215617, 0.051771622, 0.0098293815, 0.04631107, 0.028538652, 0.11029904, 0.053864844, -0.12153672, -0.09839736, -0.077432305, 0.007422661, -0.055140942, -0.03593237, 0.11429045, -0.0048420345, -0.04814711, },
{ 0.096053906, -0.0023851087, -0.029046642, 0.001388212, -0.012045777, 0.027985418, -0.111628875, 0.08165073, -0.01271257, 0.04531926, 0.043643873, 0.0056188, -0.080976546, 0.05695986, -0.013026278, -0.06507009, 0.043103438, -0.004046751, -0.044095337, -0.028026052, -0.09401171, -0.047164313, -0.018203015, -0.015620425, 0.01601319, 0.044315282, -0.029025018, -0.06571647, -0.029152736, -0.0062439567, -0.02217647, 0.0073806997, 0.03230584, 0.021873854, -0.039959975, 0.005161653, 0.04353949, 0.05575804, 0.05689046, 0.12962471, -0.018446691, -0.03282857, -0.11190886, -0.084526785, -0.011473299, 0.0013070174, -0.0023380553, -0.053599183, -0.021598257, -0.051725503, },
{ 0.075430945, -0.0046879905, -0.016670426, -0.11482611, 0.053790167, -0.042591676, -0.015709367, 0.05919908, -0.024812246, 0.14734656, 0.037952952, -0.015651297, -0.050802853, 0.079510905, 0.0040941387, 0.028996147, 0.036676597, 0.015457311, -0.0005093886, 0.038053, -0.022915658, -0.018151551, -0.044455077, -0.028054366, 0.0697024, 0.10242986, -0.087897286, -0.023107901, -0.042172026, 0.0038155606, -0.021682808, -0.048747387, 0.073365584, 0.08356203, -0.048480917, 0.08027056, -0.050507702, 0.029944776, 0.040106572, 0.09179009, -0.07199003, -0.050060626, -0.027931938, -0.05510141, -0.00012963917, -0.063736245, -0.03693371, -0.006317908, -0.018639488, 0.03159558, },
{ -0.025467224, -0.04402759, -0.06449095, -0.01687626, -0.040705428, -0.07160041, -0.061753433, -0.00025021422, 0.04266764, 0.11677817, -0.014955426, 0.06128549, -0.015663657, -0.018736672, 0.097971104, 0.0027745229, -0.02893634, -0.013869447, -0.007565537, 0.0039425367, 0.023854716, 0.055594042, 0.0073332745, 0.009408929, 0.03863812, 0.10531716, -0.01859874, -0.0010661541, -0.023246901, -0.014184474, -0.07377939, -0.004303851, 0.026804712, 0.098202236, -0.028010607, 0.028263802, 0.063925885, 0.002505008, 0.028024405, 0.13436209, -0.010863068, 0.005180291, -0.020455394, -0.009059044, 0.034875453, 0.0019414672, -0.07643376, -0.028923078, -0.07512248, 0.033696756, },
{ -0.09292348, -0.028432745, 0.010003021, -0.05231626, -0.046887025, -0.124706075, -0.014542673, 0.06766072, 0.047530472, 0.055327673, 0.021449296, 0.061394673, -0.009822354, 0.016539335, 0.011755982, 0.014739113, -0.068564355, 0.055981953, -0.016507098, -0.01917383, 0.021412851, 0.09816548, 0.022723503, -0.08136357, 0.011297532, 0.07300915, -0.031193228, 0.056825485, 0.05055155, 0.07396714, -0.07379658, 0.0044790553, -0.028312774, 0.07394524, -0.094030894, -0.0052995994, 0.043642938, -0.019687569, -0.014749086, 0.10546267, -0.03711368, 0.01411399, 0.044345796, -0.02498638, 0.042371448, 0.026521202, -0.033172593, -0.054955155, 0.043965474, 0.037146788, },
{ -0.03659909, -0.03740813, -0.0057568355, 0.04061448, -0.04124609, -0.10854548, -0.055660747, 0.044461656, 0.0032685688, 0.010752667, 0.11195223, 0.07267844, -0.005241055, -0.0153850615, -0.03756094, -0.05613895, -0.023965966, -0.051044323, 0.028676733, -0.022235394, 0.046503115, 0.008729973, 0.03573374, -0.04625908, -0.046893135, 0.047462948, 0.028112695, 0.05156303, -0.08234207, 0.043701075, 0.0073146643, 0.0015466096, -0.005846972, 0.0020432568, -0.04007127, 0.10026392, 0.09113773, 0.045077346, -0.07369481, 0.1089196, -0.092194855, 0.01868438, 0.07200836, -0.057883304, 0.0111459335, 0.0039523826, -0.075105935, 0.0008507852, 0.03414802, 0.028612576, },
{ -0.06728333, 0.020347062, -0.02213298, -0.028439326, -0.04760301, -0.040075123, -0.028899932, 0.10327336, 0.056413442, -0.050397296, -0.021728568, 0.043219477, -0.00624631, 0.014639724, 0.06775368, 0.008239988, -0.10307667, -0.03747853, 0.023678793, 0.056788705, -0.04613075, 0.07186403, 0.035062082, -0.06817549, -0.03779147, 0.044513226, 0.045415398, 0.0630983, 0.03578085, 0.047395922, -0.052400246, -0.06863898, -0.008779653, 0.008464747, -0.001091009, -0.01925699, 0.02096492, 0.02792851, 0.0059961006, -0.012236256, -0.04252686, 0.058828156, 0.009181503, -0.03271328, 0.015838234, 0.05047337, -0.03937848, -0.015285549, 0.03821049, -0.05167057, },
{ -0.04876198, 0.05808729, 0.018097477, 0.042928077, -0.011003873, -0.06894713, 0.04665417, 0.030937055, 0.06670372, 0.056325395, 0.04864909, -0.01605556, 0.05322411, -0.04665178, 0.060516793, 0.029427644, -0.03136084, -0.02218082, 0.007629919, 0.046905637, -0.014195364, 0.017930629, 0.012204836, -0.075902835, 0.06636147, -0.017917013, 0.005622458, 0.07191115, -0.009080654, -0.03572273, -0.0052089044, -0.028936272, -0.039096024, 0.015877983, -0.01353745, 0.03428962, 0.053269137, -0.007865282, -0.036143173, 0.010480474, -0.012622967, 0.06187379, -0.06049672, 0.108140804, 0.05836729, 0.032613546, -0.008544779, -0.023594337, -0.0023256321, -0.033077747, },
{ -0.03779918, -0.029776959, 0.07096327, 0.051617566, -0.029359119, 0.014869525, -0.018060056, 0.040953584, 0.039170507, -0.03790873, 0.047251005, 0.060999233, 0.03947434, -0.047132585, 0.054575887, 0.048347406, -0.02515264, 0.007782564, -0.04010151, 0.002209598, -0.022733338, 0.034204934, 0.02552704, -0.02019841, -0.023550874, 0.02021189, 0.012890345, -0.005328526, -0.028330797, 0.032496482, 0.013270667, -0.031566016, 0.03367498, 0.022757724, 0.044674452, -0.019171264, 0.0011575177, 0.051652003, -0.045438368, -0.13964878, -0.04050167, 0.060945574, 0.0032527682, -0.00036076605, -0.012201475, 0.042923547, 0.0009881621, -0.011843278, -0.028572403, 0.059273265, },
{ 0.0056832316, 0.002464326, 0.015893744, 0.055767242, -0.085655734, -0.006599618, 0.0050127767, -0.050882418, -0.017934628, -0.07742215, -0.017925775, 0.06348534, -0.05138451, 0.010256426, 0.031076472, -0.015737483, 0.028254775, 0.0068692104, 0.004250048, 0.020808127, -0.012600802, 0.009897314, -0.0475032, 0.018223226, 0.023426015, -0.0576905, -0.076678015, 0.0070745726, 0.07658504, -0.0027739846, 0.024765942, 0.0193427, -0.0046153422, -0.03061898, 0.06011335, 0.035907038, 0.05989211, 0.031143215, -0.009455731, -0.012621472, -0.012224922, 0.056101296, -0.036419444, -0.0026436707, 0.013635203, 0.012903367, -0.064858794, 0.029455604, 0.047691543, 0.055149864, },
{ -0.026794713, -0.054675482, -0.027099283, -0.033611406, 0.02562435, -0.031068377, 0.015482967, -0.08911905, 0.029982893, 0.039320517, -0.08667233, -0.019828858, -0.00046953064, -0.0067766416, 0.015905956, 0.032787614, 0.029112173, 0.01626163, -0.01602576, 0.0202238, -0.024225648, 0.048983335, -0.032358766, 0.059851065, -0.05009518, -0.008774441, 0.018407779, -0.028891234, 0.033815283, -0.02472014, -0.04117645, -0.008968359, 0.013250886, -0.0516661, 0.06379657, 0.047626194, -0.07525121, -0.040614594, 0.018695984, -0.04876571, 0.017281597, 0.007765844, 0.0042303964, 0.0057744747, 0.034725893, -0.03102789, -0.036591552, -0.0041388595, 0.033502653, -0.009156418, },
{ -0.061101865, -0.027807184, -0.00033801253, -0.0053052055, -0.013690514, 0.025044298, -0.036319613, 0.021125834, 0.033781856, -0.08233201, -0.0040253145, 0.0017789423, 0.017829457, -0.020167578, -0.09306913, -0.089900054, 0.0059218463, 0.012373472, -0.042741206, -0.006434035, 0.032124974, 0.074996844, 0.014039715, 0.0022560987, 0.014297786, -0.025157096, 0.0069947024, 0.011098759, 0.029776135, 0.027096242, -0.037091367, -0.010859859, 0.05692481, 0.034387175, -0.05767255, 0.061175648, -0.0035025857, -0.014204917, -0.0053930795, 0.015162269, -0.01485721, 0.008492629, -0.027298898, -0.011082852, -0.03834967, -0.033164233, -0.03854714, 0.043692578, 0.06975971, -0.05125763, },
{ 0.024999527, 0.01912493, -0.017213916, -0.05645605, 0.014912903, -0.0459513, 0.025343377, -0.05623697, 0.03429125, 0.02549888, -0.028165165, 0.05314428, -0.04981685, 0.0031405974, 0.048703954, -0.015280043, 0.048461404, 0.011748492, -0.05640235, -0.012432936, 0.030190963, -0.010423564, 0.054621793, 0.0127026085, -0.029872522, -0.0331093, -0.021554578, -0.00941224, 0.01652317, 0.037171952, 0.06888434, 0.007983242, -0.008266673, -0.027316187, 5.5295626e-05, 0.017727608, 0.003867811, 0.041575197, -0.028916998, -0.02035637, 0.002294398, -0.036796927, -0.027708443, -0.017268235, -0.03255612, 0.00555295, -0.073891476, -0.0049538235, -4.305969e-05, -0.010866408, },
{ 0.0637623, -0.04326968, -0.028125372, 0.008866701, 0.0032639978, 0.042656116, 0.00553629, -0.014272464, -0.0067680865, -0.058368757, -0.050453853, 0.03110054, -0.011142309, 0.009250485, 0.002752664, -0.042224262, -0.02840907, 0.0040995856, -0.04626731, -0.013584193, 0.014207735, -0.0016265479, 0.00843834, -0.03253381, -0.016219055, -0.10654358, -0.03174156, -0.026489867, 0.04494454, -0.03167069, 0.016464954, -0.02657232, -0.00435692, 0.0021324512, 0.013436186, -0.01849907, 0.01710802, 0.0018917499, 0.0039372332, -0.013984498, 0.0026090676, -0.025794057, -0.045107335, 0.0010287499, -0.048273433, -0.039387763, 0.022630356, -0.058013022, -0.047095012, 0.051642746, },
{ -0.012927217, -0.017621435, 0.008580952, -0.017831704, -0.005531223, 0.05530705, 0.01978348, -0.022969317, -0.053451087, -0.04898235, 0.04848698, -0.013222662, 0.03609628, -0.010649163, 0.039073467, 0.030290244, 0.024953404, -0.061183747, -0.06434054, 0.030683745, 0.028508887, -0.03155045, 0.006622982, -0.025236668, 0.012870233, -0.03856333, -0.04148305, 0.053649258, -0.015903702, -0.030190052, 0.034345396, 0.0132560395, 0.04991673, 0.05506284, 0.031774063, 0.0012761578, -0.054191094, 0.025675511, -0.00073661056, 0.04114587, 0.05662061, 0.0067509743, 0.039839823, -0.016242, 0.0040616863, -0.059533607, -0.0035764673, 0.024617271, 0.07003212, -0.0044970857, },
{ 0.043324646, -0.031161975, -0.05245119, 0.020493537, -0.01798314, -0.020934599, -0.041156225, -0.02180192, -0.05038631, 0.019606257, 0.03542578, 0.05194108, -0.0010749612, 0.034337938, -0.007506859, 0.023681823, -0.069180265, 0.0070900396, -0.01037937, 0.024040747, -0.04445611, 0.0034085854, 0.004023175, 0.017665097, -0.025349934, -0.03218842, 0.011398809, -0.005516976, 0.08700654, 0.07915471, 0.023919478, 0.049130637, -0.05938414, -0.024337055, 0.03510273, -0.017016904, -0.043536734, -0.041202262, 0.017940914, -0.007394281, 0.040094767, 0.07526173, -0.016969645, 0.0061113695, 0.07133288, -0.021784466, -0.0406498, 0.043238573, 0.077259675, 0.034637794, },
{ -0.01537605, 0.0032485195, 0.036458716, 0.020656481, 0.015209262, -0.08266096, 0.0070565995, -0.05816868, 0.016120723, 0.09845245, 0.039723188, -0.03676568, 0.00043150166, -0.028682293, -0.06254824, 0.025096904, 0.009014061, 0.008129643, 0.014241602, -0.005938979, -0.025004996, -0.01388506, -0.024288625, -0.00091412925, 0.03149833, 0.10981483, -0.038886722, -0.06412572, 0.045104343, 0.009376263, -0.053298842, -0.032484602, 0.049294647, 0.007265334, -0.032771386, 0.023976408, -0.025015581, -0.013897294, 0.02847613, -0.0066694473, 0.059482682, -0.009734652, 0.041676115, -0.049034286, -0.015199395, -0.015019121, -0.014979747, 0.05680073, 0.03526073, 0.007305364, },
{ 0.06934759, -0.009968566, 0.051523514, -0.03685195, 0.02341604, -0.0103675155, -0.037320957, -0.018818421, -0.09263719, 0.03631736, -0.033491585, -0.020291138, -0.03102434, 0.03920516, -0.0063187163, -0.0019105179, 0.013726549, -0.025290137, -0.003333448, -0.0058106394, -0.027641382, -0.00090417307, 0.020475559, 0.046575498, -0.030616263, -0.09096774, 0.011514604, -0.08569077, 0.041732468, -0.001303077, -0.023629498, 0.041096985, 0.031224184, 0.059498746, 0.008427414, 0.0066127204, 0.017837042, 0.044889543, 0.1649119, -0.01802327, 0.021207886, -0.026967596, -0.018067416, -0.0011966961, -0.017642075, -0.031688914, 0.021583302, 0.02247919, -0.042982705, -0.044677433, },
{ -0.016827954, 0.0027169185, 0.028358035, 0.024729952, 0.06581297, 0.04727021, -0.13255359, -0.026745386, -0.050319977, 0.012262178, -0.042383563, -0.012816064, -0.027883207, 0.018287405, -0.0061966954, -0.0022877082, 0.054322224, 0.11391191, 0.010866998, 0.093841955, -0.05837878, 0.02204243, -0.036813717, 0.06947394, -0.038221523, 0.016540378, -0.0769147, -0.059022125, 0.11755446, -0.06517033, 0.0011997109, -0.012448255, 0.01704315, 0.025050377, -0.07782615, -0.07370992, -0.02411979, -0.026571255, 0.11116659, 0.060829043, -0.12020592, -0.008839761, -0.04758532, -0.06728757, 0.09311253, -0.016359672, 0.020988699, 0.020931503, -0.095847316, -0.006791731, },
{ 0.025844956, 0.0014690183, 0.014784763, -0.021552252, 0.00405893, 0.0024043715, -0.040108223, -0.020251017, -0.07590943, 0.09378571, -0.041764595, -0.038909238, -0.047102284, 0.017724084, 0.022607982, 0.07812271, 0.110362366, 0.012621385, -0.046440676, 0.0824532, -0.01962263, -0.011425919, -0.1067613, 0.0037287814, 0.03631358, 0.005834425, -0.009667761, -0.017566504, 0.071450986, -0.040154707, -0.07129302, 0.012694236, 0.04550841, 0.062017117, 0.00027862634, 0.00899183, 0.0024388721, -0.0729246, 0.1090997, 0.006863354, 0.018073555, -0.02006125, -0.042548347, -0.013389054, -0.035723075, 0.009745079, -0.018479722, -0.043113664, 0.031120101, 0.0002608435, },
